<?xml version="1.0"?>
<opencv_storage>
<cascade>
  <stageType>BOOST</stageType>
  <featureType>LBP</featureType>
  <height>40</height>
  <width>40</width>
  <stageParams>
    <boostType>GAB</boostType>
    <minHitRate>9.9500000476837158e-01</minHitRate>
    <maxFalseAlarm>5.0000000000000000e-01</maxFalseAlarm>
    <weightTrimRate>9.4999999999999996e-01</weightTrimRate>
    <maxDepth>1</maxDepth>
    <maxWeakCount>100</maxWeakCount></stageParams>
  <featureParams>
    <maxCatCount>256</maxCatCount>
    <featSize>1</featSize></featureParams>
  <stageNum>20</stageNum>
  <stages>
    <!-- stage 0 -->
    <_>
      <maxWeakCount>9</maxWeakCount>
      <stageThreshold>-1.1020922660827637e+00</stageThreshold>
      <weakClassifiers>
        <_>
          <internalNodes>
            0 -1 167 -16385 2137980927 -14819329 -16843074 -656443011
            -146543 -4206092 -18555244</internalNodes>
          <leafValues>
            -5.3562384843826294e-01 3.3568280935287476e-01</leafValues></_>
        <_>
          <internalNodes>
            0 -1 219 179838901 -1145366697 -71378433 -1346601123
            1061125631 -1073881937 -1092736515 -1359340044</internalNodes>
          <leafValues>
            -4.8881599307060242e-01 3.5416957736015320e-01</leafValues></_>
        <_>
          <internalNodes>
            0 -1 2 -494411596 -525407232 68307269 148002 -101683273
            -1419521818 1192954227 1613190227</internalNodes>
          <leafValues>
            -5.6624853610992432e-01 3.0836847424507141e-01</leafValues></_>
        <_>
          <internalNodes>
            0 -1 146 779354453 -279020553 -1247896065 -1147650081
            -258088 -21497217 -1124259336 -1157861387</internalNodes>
          <leafValues>
            -4.7395718097686768e-01 3.6846679449081421e-01</leafValues></_>
        <_>
          <internalNodes>
            0 -1 61 -206650496 -87955368 -922335723 -964558832
            -395804271 -100068605 -652906474 1392643</internalNodes>
          <leafValues>
            -5.5768537521362305e-01 3.2037234306335449e-01</leafValues></_>
        <_>
          <internalNodes>
            0 -1 210 706568023 -1176764737 -16842755 -537070617
            -537886727 -1078034435 -285803020 -1434927116</internalNodes>
          <leafValues>
            -3.6394867300987244e-01 5.0977158546447754e-01</leafValues></_>
        <_>
          <internalNodes>
            0 -1 223 -572551353 596147590 -170533390 643488910
            1265464645 1104436124 -21826348 -989987994</internalNodes>
          <leafValues>
            -5.4566842317581177e-01 3.2254749536514282e-01</leafValues></_>
        <_>
          <internalNodes>
            0 -1 165 449855313 2144476891 -1181192197 -1115548239
            1926969781 -779590 918060446 -1383060256</internalNodes>
          <leafValues>
            -5.2049350738525391e-01 3.5595533251762390e-01</leafValues></_>
        <_>
          <internalNodes>
            0 -1 149 -83895261 -1844657086 -931024780 419648541
            -1893555040 -1991647156 1175113058 142336811</internalNodes>
          <leafValues>
            -4.8773491382598877e-01 3.9765390753746033e-01</leafValues></_></weakClassifiers></_>
    <!-- stage 1 -->
    <_>
      <maxWeakCount>7</maxWeakCount>
      <stageThreshold>-1.3372625112533569e+00</stageThreshold>
      <weakClassifiers>
        <_>
          <internalNodes>
            0 -1 29 -149688346 1816384998 -336340856 117934095
            1074960900 67354631 727395595 802114319</internalNodes>
          <leafValues>
            -7.6699030399322510e-01 7.2824157774448395e-02</leafValues></_>
        <_>
          <internalNodes>
            0 -1 7 -1073553406 -938441150 1744880848 33280 -503233792
            1610761232 1346587726 1147662719</internalNodes>
          <leafValues>
            -6.6818135976791382e-01 2.3393566906452179e-01</leafValues></_>
        <_>
          <internalNodes>
            0 -1 3 -351606622 -292911104 1683099696 33866752 -500500301
            -73260461 1932637234 1267451655</internalNodes>
          <leafValues>
            -5.7487583160400391e-01 2.5600641965866089e-01</leafValues></_>
        <_>
          <internalNodes>
            0 -1 248 -273685758 36411015 -1944691134 -486545021
            1822630725 91223247 -644091552 -301998145</internalNodes>
          <leafValues>
            -4.5621919631958008e-01 3.5209974646568298e-01</leafValues></_>
        <_>
          <internalNodes>
            0 -1 193 95815445 47608251 -502352398 -1176755922
            -1127522831 -1183754240 -1186000388 -1296168480</internalNodes>
          <leafValues>
            -4.4010967016220093e-01 3.5941821336746216e-01</leafValues></_>
        <_>
          <internalNodes>
            0 -1 138 -880550093 -363871157 -1988571395 130013663
            -815214581 -884393676 17297926 1088410179</internalNodes>
          <leafValues>
            -3.6379992961883545e-01 4.0707024931907654e-01</leafValues></_>
        <_>
          <internalNodes>
            0 -1 217 -597721088 819294533 -1878981352 358992666
            -2008170496 -368555597 1955112992 1796981563</internalNodes>
          <leafValues>
            -5.1191413402557373e-01 2.9371255636215210e-01</leafValues></_></weakClassifiers></_>
    <!-- stage 2 -->
    <_>
      <maxWeakCount>9</maxWeakCount>
      <stageThreshold>-1.5729660987854004e+00</stageThreshold>
      <weakClassifiers>
        <_>
          <internalNodes>
            0 -1 183 718216791 -8537649 -1785480227 -547737094
            -1160692227 -1415847981 -1349648643 -1148305864</internalNodes>
          <leafValues>
            -5.7328855991363525e-01 1.4635807275772095e-01</leafValues></_>
        <_>
          <internalNodes>
            0 -1 47 -741867917 -366968458 -1744583632 1262927905
            1113264192 1380149525 1146314248 1095198331</internalNodes>
          <leafValues>
            -5.2327972650527954e-01 2.2032532095909119e-01</leafValues></_>
        <_>
          <internalNodes>
            0 -1 211 -1280164257 -1413232276 -604779361 -19213482
            -283702726 -302255137 -742802828 -53424716</internalNodes>
          <leafValues>
            -3.6698281764984131e-01 3.4351065754890442e-01</leafValues></_>
        <_>
          <internalNodes>
            0 -1 195 -12860928 863629055 -1343361958 -81264645
            2115912773 -10846929 1893080600 -36177937</internalNodes>
          <leafValues>
            -3.2891169190406799e-01 4.0768298506736755e-01</leafValues></_>
        <_>
          <internalNodes>
            0 -1 150 -363075069 138933511 -1509830349 654660923
            -1932555868 168787400 -935755525 1249890507</internalNodes>
          <leafValues>
            -4.0758591890335083e-01 3.2695642113685608e-01</leafValues></_>
        <_>
          <internalNodes>
            0 -1 224 720840249 162412498 -403832865 -671219799 796884473
            -272629777 -137649243 -1931045708</internalNodes>
          <leafValues>
            -3.5847160220146179e-01 3.8167083263397217e-01</leafValues></_>
        <_>
          <internalNodes>
            0 -1 123 -892852875 -627568354 -2112137361 1590169336
            1966505540 -77274510 -1815899664 -1634727520</internalNodes>
          <leafValues>
            -4.2657110095024109e-01 3.1266099214553833e-01</leafValues></_>
        <_>
          <internalNodes>
            0 -1 162 -154417070 -1114272757 -888993743 -1804525567
            1556720282 -1945984984 1888657165 139936955</internalNodes>
          <leafValues>
            -4.2456436157226562e-01 3.2743313908576965e-01</leafValues></_>
        <_>
          <internalNodes>
            0 -1 201 104741143 -1277526046 1012264391 -237089508
            582465764 -1128701080 -1145620688 -1409678928</internalNodes>
          <leafValues>
            -3.9814504981040955e-01 3.3028125762939453e-01</leafValues></_></weakClassifiers></_>
    <!-- stage 3 -->
    <_>
      <maxWeakCount>12</maxWeakCount>
      <stageThreshold>-1.1109081506729126e+00</stageThreshold>
      <weakClassifiers>
        <_>
          <internalNodes>
            0 -1 139 1405407374 1560334506 1104320465 1436784802
            -936786712 138446848 1246337758 1258546323</internalNodes>
          <leafValues>
            -6.3160544633865356e-01 5.6360706686973572e-02</leafValues></_>
        <_>
          <internalNodes>
            0 -1 134 1523579570 824962370 -1010693441 -2061563238
            1074257050 981467144 370082782 17498139</internalNodes>
          <leafValues>
            -5.0482302904129028e-01 2.4596166610717773e-01</leafValues></_>
        <_>
          <internalNodes>
            0 -1 19 -249505550 -549010912 1646399638 -952045152
            -827457557 -856326145 -1607469317 1867511071</internalNodes>
          <leafValues>
            -3.3905681967735291e-01 3.6960315704345703e-01</leafValues></_>
        <_>
          <internalNodes>
            0 -1 142 -663499085 -202488713 217883769 1432688051
            1628146866 -1600257888 1117245083 237748511</internalNodes>
          <leafValues>
            -3.2370585203170776e-01 3.9290621876716614e-01</leafValues></_>
        <_>
          <internalNodes>
            0 -1 160 2102745637 1779881642 1381679601 -134156102
            1472815696 -394184673 -19326220 -255789440</internalNodes>
          <leafValues>
            -4.1006168723106384e-01 3.1985440850257874e-01</leafValues></_>
        <_>
          <internalNodes>
            0 -1 190 -724250992 76319120 1634736308 469852396 1222497236
            1371570322 -1400674648 1046695</internalNodes>
          <leafValues>
            -5.6179296970367432e-01 2.3460711538791656e-01</leafValues></_>
        <_>
          <internalNodes>
            0 -1 42 -468525869 -377445862 1053054771 1167182467
            -293673589 -2707934 -579444997 -833639933</internalNodes>
          <leafValues>
            -3.0509430170059204e-01 4.2354327440261841e-01</leafValues></_>
        <_>
          <internalNodes>
            0 -1 250 -277263789 1597726503 -881690767 998734339
            -732212216 1593277526 -662974705 -369655969</internalNodes>
          <leafValues>
            -2.6370507478713989e-01 4.7185832262039185e-01</leafValues></_>
        <_>
          <internalNodes>
            0 -1 36 -266351326 -359464956 310820945 1560612869
            -1342177110 2047287297 -1946099701 1333489251</internalNodes>
          <leafValues>
            -3.7298265099525452e-01 3.6364307999610901e-01</leafValues></_>
        <_>
          <internalNodes>
            0 -1 55 -336152961 -617993110 -637691783 -1423584141
            992759503 1587752465 132484574 -11288069</internalNodes>
          <leafValues>
            -2.5174480676651001e-01 5.2966892719268799e-01</leafValues></_>
        <_>
          <internalNodes>
            0 -1 189 -867973606 -1157305183 870365333 -552443783
            -1946039240 -1170013632 1080136184 208346319</internalNodes>
          <leafValues>
            -4.1307792067527771e-01 3.2048109173774719e-01</leafValues></_>
        <_>
          <internalNodes>
            0 -1 228 -703476720 -611127262 -1072000687 -1589141501
            -2146923432 -2004115323 201357902 -1988116431</internalNodes>
          <leafValues>
            -3.7798240780830383e-01 3.4518709778785706e-01</leafValues></_></weakClassifiers></_>
    <!-- stage 4 -->
    <_>
      <maxWeakCount>12</maxWeakCount>
      <stageThreshold>-1.0315970182418823e+00</stageThreshold>
      <weakClassifiers>
        <_>
          <internalNodes>
            0 -1 11 2029516519 1257211887 -790632848 -487593266
            1922519905 1126948291 -105424585 -162005021</internalNodes>
          <leafValues>
            -6.0330575704574585e-01 9.4043882563710213e-03</leafValues></_>
        <_>
          <internalNodes>
            0 -1 168 -638853121 -1759685857 -1017684994 -687949902
            1538990047 1840836148 1222331892 -587363464</internalNodes>
          <leafValues>
            -3.2422745227813721e-01 3.3813762664794922e-01</leafValues></_>
        <_>
          <internalNodes>
            0 -1 69 -494737596 622847317 -1953270453 804230273
            1355376645 1319731739 -202814946 722949934</internalNodes>
          <leafValues>
            -4.6314579248428345e-01 2.2761738300323486e-01</leafValues></_>
        <_>
          <internalNodes>
            0 -1 203 1750981658 1400421205 38965790 971696922 -395261952
            -273487836 135848010 50593626</internalNodes>
          <leafValues>
            -3.9531198143959045e-01 2.8077772259712219e-01</leafValues></_>
        <_>
          <internalNodes>
            0 -1 252 -83898841 581554519 -161244958 783673254 -227836351
            1978574547 2080356146 -521142481</internalNodes>
          <leafValues>
            -3.8447895646095276e-01 2.9326388239860535e-01</leafValues></_>
        <_>
          <internalNodes>
            0 -1 136 707996741 988525529 -930897958 -84216834 1091987732
            -74897078 1771301332 -235736832</internalNodes>
          <leafValues>
            -4.2122566699981689e-01 2.6181870698928833e-01</leafValues></_>
        <_>
          <internalNodes>
            0 -1 28 1862134446 1189498213 1184871076 -356323254
            -201500095 272876053 49270832 1691871847</internalNodes>
          <leafValues>
            -5.9326297044754028e-01 1.7306666076183319e-01</leafValues></_>
        <_>
          <internalNodes>
            0 -1 154 -234057796 1937170912 957559672 -1425302905
            990168308 719202492 -129616545 713034850</internalNodes>
          <leafValues>
            -4.4587475061416626e-01 2.6140907406806946e-01</leafValues></_>
        <_>
          <internalNodes>
            0 -1 67 -18612433 -2097893529 -377512226 -162349122
            -110135441 -17399827 -52498456 -222822562</internalNodes>
          <leafValues>
            -3.1162488460540771e-01 3.7998312711715698e-01</leafValues></_>
        <_>
          <internalNodes>
            0 -1 18 -479171984 -657936626 -1436519433 -215719847
            -1880629762 -913642271 1044197107 -317873129</internalNodes>
          <leafValues>
            -3.3562096953392029e-01 3.6699894070625305e-01</leafValues></_>
        <_>
          <internalNodes>
            0 -1 256 -372640477 176870498 -45471134 1251990007
            -174745257 1778803060 1669572176 -204480953</internalNodes>
          <leafValues>
            -4.1296669840812683e-01 2.8722581267356873e-01</leafValues></_>
        <_>
          <internalNodes>
            0 -1 231 2086658654 278519666 -2009823245 1894111154
            -660075966 1493733409 33859210 144428139</internalNodes>
          <leafValues>
            -4.1465243697166443e-01 2.8871279954910278e-01</leafValues></_></weakClassifiers></_>
    <!-- stage 5 -->
    <_>
      <maxWeakCount>13</maxWeakCount>
      <stageThreshold>-1.1001724004745483e+00</stageThreshold>
      <weakClassifiers>
        <_>
          <internalNodes>
            0 -1 184 716048189 1031618495 -275973635 -1078544033
            -1253344289 -54693765 -1081362438 -1075840014</internalNodes>
          <leafValues>
            -5.0611621141433716e-01 1.4100486040115356e-01</leafValues></_>
        <_>
          <internalNodes>
            0 -1 186 340630323 706500814 -206988295 -366601890
            1857769553 720186151 -90927980 -53149968</internalNodes>
          <leafValues>
            -4.2760282754898071e-01 2.2325192391872406e-01</leafValues></_>
        <_>
          <internalNodes>
            0 -1 1 268616434 25855806 -1554531351 -1893356718 1976882171
            -1462703910 -358613829 -843104005</internalNodes>
          <leafValues>
            -3.1370902061462402e-01 3.1140282750129700e-01</leafValues></_>
        <_>
          <internalNodes>
            0 -1 112 1181147024 1365356099 -107586029 935282250
            205743037 431237540 2120133373 735555223</internalNodes>
          <leafValues>
            -3.4407433867454529e-01 2.7940890192985535e-01</leafValues></_>
        <_>
          <internalNodes>
            0 -1 83 -1439973381 665336558 -1149240585 -39078798
            534691316 -823033945 -1006667819 -1000542143</internalNodes>
          <leafValues>
            -2.7400135993957520e-01 3.5942450165748596e-01</leafValues></_>
        <_>
          <internalNodes>
            0 -1 254 -2086668541 -1377239046 1735866399 -1379464
            -2022189324 260046840 2145195921 -1917989508</internalNodes>
          <leafValues>
            -3.2058995962142944e-01 3.3659303188323975e-01</leafValues></_>
        <_>
          <internalNodes>
            0 -1 130 -1841173888 1455515136 1460052439 398176403
            -116880738 -1677720056 1770033087 641759570</internalNodes>
          <leafValues>
            -4.2961817979812622e-01 2.7449509501457214e-01</leafValues></_>
        <_>
          <internalNodes>
            0 -1 92 -698462937 1620865598 -1475054242 -1912316496
            1371106156 -1302883389 -1423089082 -128647308</internalNodes>
          <leafValues>
            -4.4317728281021118e-01 2.4866293370723724e-01</leafValues></_>
        <_>
          <internalNodes>
            0 -1 8 -830093754 112947114 1615905347 -761697969 1718229252
            -328876287 1820546615 -620763017</internalNodes>
          <leafValues>
            -3.5935285687446594e-01 2.9835525155067444e-01</leafValues></_>
        <_>
          <internalNodes>
            0 -1 66 -42075658 1016432842 1762300138 1143984485
            2025247392 -2076704459 -590679718 594250278</internalNodes>
          <leafValues>
            -4.2855259776115417e-01 2.5084981322288513e-01</leafValues></_>
        <_>
          <internalNodes>
            0 -1 56 1249577594 -52794622 1887593805 -579632976
            1215120519 -926051187 1508663453 -75674351</internalNodes>
          <leafValues>
            -3.4337624907493591e-01 3.2364249229431152e-01</leafValues></_>
        <_>
          <internalNodes>
            0 -1 111 -1897641612 -23242341 354174623 449318875
            2074239525 -7665081 1984834270 1320507735</internalNodes>
          <leafValues>
            -4.8391565680503845e-01 2.2788490355014801e-01</leafValues></_>
        <_>
          <internalNodes>
            0 -1 49 -197181479 893018918 236209402 -1598451512
            1821199381 -41735671 2136752542 -200257230</internalNodes>
          <leafValues>
            -3.5843637585639954e-01 3.2199016213417053e-01</leafValues></_></weakClassifiers></_>
    <!-- stage 6 -->
    <_>
      <maxWeakCount>13</maxWeakCount>
      <stageThreshold>-1.1066535711288452e+00</stageThreshold>
      <weakClassifiers>
        <_>
          <internalNodes>
            0 -1 126 -580911169 -616983111 -744956033 -52521514
            -1420235890 -115760665 -39060516 -202104</internalNodes>
          <leafValues>
            -4.5042300224304199e-01 2.0223464071750641e-01</leafValues></_>
        <_>
          <internalNodes>
            0 -1 59 -273256466 -373542814 -306008394 1734443654
            304162479 1593328418 1117667598 1148912663</internalNodes>
          <leafValues>
            -4.9338930845260620e-01 1.7945696413516998e-01</leafValues></_>
        <_>
          <internalNodes>
            0 -1 82 -299906381 -17838977 1195163829 1555757973
            -1198923261 -1932654414 559804931 1209172003</internalNodes>
          <leafValues>
            -3.5950502753257751e-01 2.4417825043201447e-01</leafValues></_>
        <_>
          <internalNodes>
            0 -1 213 878456501 -276229662 -1147953667 -552191852
            -2092717384 -1835497430 -1555949096 -1640492268</internalNodes>
          <leafValues>
            -3.2503110170364380e-01 3.0538290739059448e-01</leafValues></_>
        <_>
          <internalNodes>
            0 -1 77 -798818480 -687409994 -201159286 -241505790
            -117034140 -2091709205 -2574113 -588045041</internalNodes>
          <leafValues>
            -3.0398231744766235e-01 3.0755582451820374e-01</leafValues></_>
        <_>
          <internalNodes>
            0 -1 232 -676390015 310886179 374289202 582597379 1372522531
            564144329 -330360654 -2103970433</internalNodes>
          <leafValues>
            -3.1272664666175842e-01 3.1028297543525696e-01</leafValues></_>
        <_>
          <internalNodes>
            0 -1 33 -218181296 750477733 1595117596 1214789320 -55083130
            -20720711 1743252827 1080476276</internalNodes>
          <leafValues>
            -4.8860242962837219e-01 1.9337354600429535e-01</leafValues></_>
        <_>
          <internalNodes>
            0 -1 236 1591494748 1943202396 1364602879 1965545975
            418198728 -606448884 511473692 -2007899323</internalNodes>
          <leafValues>
            -3.9167529344558716e-01 2.4862426519393921e-01</leafValues></_>
        <_>
          <internalNodes>
            0 -1 222 -144726017 104016295 -1505778317 665923163
            -425914662 2130476924 -311249841 -294129029</internalNodes>
          <leafValues>
            -2.6438233256340027e-01 4.1450053453445435e-01</leafValues></_>
        <_>
          <internalNodes>
            0 -1 156 -633947856 499178811 -435677315 126512651
            -1248461907 -1132182482 233803513 335475237</internalNodes>
          <leafValues>
            -3.6416158080101013e-01 3.0049517750740051e-01</leafValues></_>
        <_>
          <internalNodes>
            0 -1 155 -1178617025 1478124765 -48321894 2107933296
            -2121747019 731947137 -510703559 169462795</internalNodes>
          <leafValues>
            -3.2506981492042542e-01 3.3280837535858154e-01</leafValues></_>
        <_>
          <internalNodes>
            0 -1 44 1059126204 528933122 -2129176235 -988216992
            1163823271 753107090 1665418455 229590065</internalNodes>
          <leafValues>
            -4.5057904720306396e-01 2.4143765866756439e-01</leafValues></_>
        <_>
          <internalNodes>
            0 -1 169 -613618600 1996637304 -938730726 -170772680
            -891878902 -629104524 -2139233906 102049571</internalNodes>
          <leafValues>
            -4.5212569832801819e-01 2.4655824899673462e-01</leafValues></_></weakClassifiers></_>
    <!-- stage 7 -->
    <_>
      <maxWeakCount>15</maxWeakCount>
      <stageThreshold>-1.2276002168655396e+00</stageThreshold>
      <weakClassifiers>
        <_>
          <internalNodes>
            0 -1 30 1645798398 -117926929 -556204038 -28270722
            1374487293 1047629879 -928055362 -1020801289</internalNodes>
          <leafValues>
            -5.6833773851394653e-01 -3.7340153008699417e-02</leafValues></_>
        <_>
          <internalNodes>
            0 -1 225 900068148 34668404 -1790209572 -507746348 40698341
            144491425 -1822866192 -857867372</internalNodes>
          <leafValues>
            -4.1403242945671082e-01 1.8500497937202454e-01</leafValues></_>
        <_>
          <internalNodes>
            0 -1 24 1154996106 -2111641088 -165319085 -807156250
            44472114 1146542529 378923123 1313560135</internalNodes>
          <leafValues>
            -4.3327674269676208e-01 1.8554638326168060e-01</leafValues></_>
        <_>
          <internalNodes>
            0 -1 58 -479199725 73567702 -20972621 -981435853 645886045
            1598510279 -378809121 1875901611</internalNodes>
          <leafValues>
            -2.7673619985580444e-01 3.1432378292083740e-01</leafValues></_>
        <_>
          <internalNodes>
            0 -1 164 912202465 -45851658 553702367 2076348699
            -1148395284 993960129 -1859532068 -1414510560</internalNodes>
          <leafValues>
            -3.0543369054794312e-01 2.9634454846382141e-01</leafValues></_>
        <_>
          <internalNodes>
            0 -1 227 2036269082 466573663 -1065083030 1898959361
            428083712 1945059600 1714240360 2143412035</internalNodes>
          <leafValues>
            -3.9396435022354126e-01 2.3850058019161224e-01</leafValues></_>
        <_>
          <internalNodes>
            0 -1 239 -310413897 576100126 -1617587247 217764294
            691416847 -1911904118 -1221381152 -1933213054</internalNodes>
          <leafValues>
            -3.2042402029037476e-01 2.8244203329086304e-01</leafValues></_>
        <_>
          <internalNodes>
            0 -1 188 -1886388257 1027559359 1547924255 -1754317001
            -948578418 -581960381 -1574884463 -77468033</internalNodes>
          <leafValues>
            -1.8963178992271423e-01 4.9840143322944641e-01</leafValues></_>
        <_>
          <internalNodes>
            0 -1 17 1689161634 115502336 206884880 -2031754954
            1512063709 1249483179 -1016596359 -1673010543</internalNodes>
          <leafValues>
            -4.7107607126235962e-01 2.0040479302406311e-01</leafValues></_>
        <_>
          <internalNodes>
            0 -1 100 1682142979 675189150 -484531149 -1561792396
            172708404 -1711957169 -1348766415 -397052362</internalNodes>
          <leafValues>
            -3.5824298858642578e-01 2.7880460023880005e-01</leafValues></_>
        <_>
          <internalNodes>
            0 -1 57 -926218703 -452841094 -833134875 1338574400
            1218937819 675513089 1093866101 430796849</internalNodes>
          <leafValues>
            -4.0453138947486877e-01 2.4688532948493958e-01</leafValues></_>
        <_>
          <internalNodes>
            0 -1 116 1582677108 2098799164 -1537696875 -757009045
            -1414283350 -1097586428 -1330367817 1443570187</internalNodes>
          <leafValues>
            -3.5175064206123352e-01 2.7635022997856140e-01</leafValues></_>
        <_>
          <internalNodes>
            0 -1 34 753658866 -1943920436 947200121 -1117921072
            536990203 -3780394 1472152035 2113364213</internalNodes>
          <leafValues>
            -4.0720257163047791e-01 2.4549075961112976e-01</leafValues></_>
        <_>
          <internalNodes>
            0 -1 241 -620783997 26297055 -955099184 -2146385070
            -1528059904 -2006569885 -1322559576 -1398409846</internalNodes>
          <leafValues>
            -3.3272156119346619e-01 3.1453481316566467e-01</leafValues></_>
        <_>
          <internalNodes>
            0 -1 233 1110432387 829135575 1862168417 536260511 204164850
            -688988181 1551803510 -896020941</internalNodes>
          <leafValues>
            -2.8650170564651489e-01 3.6554723978042603e-01</leafValues></_></weakClassifiers></_>
    <!-- stage 8 -->
    <_>
      <maxWeakCount>13</maxWeakCount>
      <stageThreshold>-1.1098533868789673e+00</stageThreshold>
      <weakClassifiers>
        <_>
          <internalNodes>
            0 -1 166 542400372 2132747229 -447357089 -1152742564
            -1209239075 -302011683 -105431619 -1145104577</internalNodes>
          <leafValues>
            -5.8769232034683228e-01 -5.7777777314186096e-02</leafValues></_>
        <_>
          <internalNodes>
            0 -1 114 -83780161 -338542179 387183868 1557533182
            1377456982 360614434 -575809372 -1289332118</internalNodes>
          <leafValues>
            -3.9163979887962341e-01 1.9558186829090118e-01</leafValues></_>
        <_>
          <internalNodes>
            0 -1 182 -858274526 204956560 1707872032 53309313 -516954209
            -1718834754 1741002496 2356480</internalNodes>
          <leafValues>
            -5.0688809156417847e-01 1.6555823385715485e-01</leafValues></_>
        <_>
          <internalNodes>
            0 -1 161 -911591020 -785374192 -1896721376 288784400
            -1139800840 263312416 -936890630 686824373</internalNodes>
          <leafValues>
            -4.7003880143165588e-01 2.1065686643123627e-01</leafValues></_>
        <_>
          <internalNodes>
            0 -1 21 -1995518287 1768934562 -1910330313 1145781794
            -495369673 -49103834 906238806 1850643791</internalNodes>
          <leafValues>
            -3.7937432527542114e-01 2.3161800205707550e-01</leafValues></_>
        <_>
          <internalNodes>
            0 -1 177 -87046294 207257921 -1530532363 1348703007
            -868638720 137970901 -1518477334 1611394342</internalNodes>
          <leafValues>
            -4.0378966927528381e-01 2.2341144084930420e-01</leafValues></_>
        <_>
          <internalNodes>
            0 -1 199 -398677453 292595703 -877680033 -1744831001
            -865402535 -956469633 -1624818643 -1095894865</internalNodes>
          <leafValues>
            -2.6229962706565857e-01 3.6835685372352600e-01</leafValues></_>
        <_>
          <internalNodes>
            0 -1 214 784635699 -1803266637 -952502155 -1474541038
            973823973 1846985457 -1281416732 -1938719776</internalNodes>
          <leafValues>
            -3.9178997278213501e-01 2.3177319765090942e-01</leafValues></_>
        <_>
          <internalNodes>
            0 -1 237 -61470694 1945835140 1757988344 1377489592
            -1031921136 -129875814 -888559446 -265148133</internalNodes>
          <leafValues>
            -3.2981312274932861e-01 2.8693616390228271e-01</leafValues></_>
        <_>
          <internalNodes>
            0 -1 145 1815133040 412111927 311317760 936789436 1015991483
            -113870629 923036191 247343618</internalNodes>
          <leafValues>
            -4.4006985425949097e-01 2.2238898277282715e-01</leafValues></_>
        <_>
          <internalNodes>
            0 -1 12 -397686774 1208217037 -1229962130 -2003072614
            1412514388 -98818498 1885523002 1953880144</internalNodes>
          <leafValues>
            -5.0670319795608521e-01 2.1232923865318298e-01</leafValues></_>
        <_>
          <internalNodes>
            0 -1 229 -334118894 865619798 1071650291 1771098698
            2056789056 -87183292 -1734283330 708115379</internalNodes>
          <leafValues>
            -4.4915845990180969e-01 2.2133204340934753e-01</leafValues></_>
        <_>
          <internalNodes>
            0 -1 255 -1065097932 -2036421695 -262909632 -1081543650
            -376332903 1841849296 294998420 -856301259</internalNodes>
          <leafValues>
            -3.6728355288505554e-01 2.8694659471511841e-01</leafValues></_></weakClassifiers></_>
    <!-- stage 9 -->
    <_>
      <maxWeakCount>12</maxWeakCount>
      <stageThreshold>-1.3559371232986450e+00</stageThreshold>
      <weakClassifiers>
        <_>
          <internalNodes>
            0 -1 103 -246023685 -711090501 1027797407 -140917319
            -394407685 160465066 -590630689 -540285461</internalNodes>
          <leafValues>
            -4.5780384540557861e-01 2.2760646045207977e-01</leafValues></_>
        <_>
          <internalNodes>
            0 -1 113 -585131225 672645341 -600008708 -1258647182
            1737225572 691997555 243497972 -177952268</internalNodes>
          <leafValues>
            -4.1331464052200317e-01 1.9620072841644287e-01</leafValues></_>
        <_>
          <internalNodes>
            0 -1 10 -1025553553 -957475058 1751376386 -184615704
            1407147583 1367301939 -416319214 -155718697</internalNodes>
          <leafValues>
            -3.2736542820930481e-01 2.5943914055824280e-01</leafValues></_>
        <_>
          <internalNodes>
            0 -1 15 -397166934 940578564 -1829574435 616758307
            2085882068 -596356264 -569881972 -379176666</internalNodes>
          <leafValues>
            -3.5588109493255615e-01 2.3107211291790009e-01</leafValues></_>
        <_>
          <internalNodes>
            0 -1 68 -1465207710 717232389 2034459987 -1715103032
            -1583712526 -1557419995 1110004451 -1842383404</internalNodes>
          <leafValues>
            -3.3665692806243896e-01 2.6835373044013977e-01</leafValues></_>
        <_>
          <internalNodes>
            0 -1 208 1186312448 297934546 1979660051 30918528 -880176897
            152314042 1323998772 250714192</internalNodes>
          <leafValues>
            -4.4342857599258423e-01 2.1225070953369141e-01</leafValues></_>
        <_>
          <internalNodes>
            0 -1 157 851575637 1060391544 -773672508 2107279020
            -1197327076 2057878071 2116582396 -1354606532</internalNodes>
          <leafValues>
            -3.8875621557235718e-01 2.2960481047630310e-01</leafValues></_>
        <_>
          <internalNodes>
            0 -1 152 -1901605502 51255543 -845036302 -1563207656
            287907460 155955885 -1834747894 1080372163</internalNodes>
          <leafValues>
            -5.1234447956085205e-01 1.8170921504497528e-01</leafValues></_>
        <_>
          <internalNodes>
            0 -1 0 -2035764518 -1087733098 118592283 -1212053740
            -409171227 518641960 1631304635 -444640057</internalNodes>
          <leafValues>
            -3.1188121438026428e-01 3.0734720826148987e-01</leafValues></_>
        <_>
          <internalNodes>
            0 -1 120 -629349870 451955194 -1425823955 -1530620248
            -669405202 -307455499 1157890781 670503603</internalNodes>
          <leafValues>
            -3.8420778512954712e-01 2.5487107038497925e-01</leafValues></_>
        <_>
          <internalNodes>
            0 -1 197 1706991745 2112732451 -293746051 -650446934
            -822931216 -881881519 -830939985 -77349162</internalNodes>
          <leafValues>
            -2.6859337091445923e-01 3.8351479172706604e-01</leafValues></_>
        <_>
          <internalNodes>
            0 -1 209 716760628 1058159079 -1291458669 533741618
            1026348661 -1182113141 588661820 -2046987984</internalNodes>
          <leafValues>
            -4.3126800656318665e-01 2.4146082997322083e-01</leafValues></_></weakClassifiers></_>
    <!-- stage 10 -->
    <_>
      <maxWeakCount>12</maxWeakCount>
      <stageThreshold>-8.8086897134780884e-01</stageThreshold>
      <weakClassifiers>
        <_>
          <internalNodes>
            0 -1 107 -211823105 -571633745 -976625921 -136611105
            -1432749586 -603658103 -1139146791 -540155506</internalNodes>
          <leafValues>
            -4.5307442545890808e-01 2.2727273404598236e-01</leafValues></_>
        <_>
          <internalNodes>
            0 -1 243 -451958398 9239175 260832818 1882257136 1154476674
            -1940468361 -762863389 12058080</internalNodes>
          <leafValues>
            -4.1249474883079529e-01 1.7044550180435181e-01</leafValues></_>
        <_>
          <internalNodes>
            0 -1 192 -458318380 -538963309 -2390692 -1626338802
            421779408 716106386 264831421 208806946</internalNodes>
          <leafValues>
            -4.2271018028259277e-01 1.8171353638172150e-01</leafValues></_>
        <_>
          <internalNodes>
            0 -1 153 71340804 1143264159 10075935 -1794357129
            -1591430528 -349395121 1928939904 8095507</internalNodes>
          <leafValues>
            -4.2301863431930542e-01 2.3246178030967712e-01</leafValues></_>
        <_>
          <internalNodes>
            0 -1 216 -1485308869 127595088 1334566910 1082712980
            466463002 949635487 279122133 -1004226668</internalNodes>
          <leafValues>
            -4.0492233633995056e-01 2.0012052357196808e-01</leafValues></_>
        <_>
          <internalNodes>
            0 -1 37 -922193430 1703544224 147233299 1166561312
            1353512566 224240323 20543121 676813667</internalNodes>
          <leafValues>
            -4.6887499094009399e-01 1.8272310495376587e-01</leafValues></_>
        <_>
          <internalNodes>
            0 -1 88 1917971208 1524457558 1778575098 1883702284
            471008388 -1776602941 -1585248210 1802698870</internalNodes>
          <leafValues>
            -4.1842693090438843e-01 2.1497468650341034e-01</leafValues></_>
        <_>
          <internalNodes>
            0 -1 95 1533005938 -694577183 1225839597 752994875
            1497740275 -1722785784 1904480719 2143999367</internalNodes>
          <leafValues>
            -3.0813696980476379e-01 2.9168123006820679e-01</leafValues></_>
        <_>
          <internalNodes>
            0 -1 115 -1000550094 1864009058 1721438599 -2054463151
            -57817951 -337969000 -935174032 176014848</internalNodes>
          <leafValues>
            -4.0536502003669739e-01 2.3876468837261200e-01</leafValues></_>
        <_>
          <internalNodes>
            0 -1 117 -227388979 -448339814 549586782 1271710302
            -1709966910 -1145378415 1510403867 467093407</internalNodes>
          <leafValues>
            -3.4293773770332336e-01 2.7773627638816833e-01</leafValues></_>
        <_>
          <internalNodes>
            0 -1 172 -571282673 -1245725069 -1502451333 -1251885107
            1031167452 -27951317 1324730955 -1343756329</internalNodes>
          <leafValues>
            -2.1732152998447418e-01 4.4267338514328003e-01</leafValues></_>
        <_>
          <internalNodes>
            0 -1 63 -717634265 2054089316 -1526758089 -1415000632
            -1979824361 -1908490254 -1850763663 -993139342</internalNodes>
          <leafValues>
            -2.9644131660461426e-01 3.4581869840621948e-01</leafValues></_></weakClassifiers></_>
    <!-- stage 11 -->
    <_>
      <maxWeakCount>14</maxWeakCount>
      <stageThreshold>-1.1154601573944092e+00</stageThreshold>
      <weakClassifiers>
        <_>
          <internalNodes>
            0 -1 245 2129611839 2077967479 1439823801 1414789519
            -328392516 -99904871 1852439242 -10240417</internalNodes>
          <leafValues>
            -5.0402450561523438e-01 5.6967571377754211e-02</leafValues></_>
        <_>
          <internalNodes>
            0 -1 215 218971570 -2004706630 -1123445772 -558703668
            -100854795 380348823 358153684 -125502052</internalNodes>
          <leafValues>
            -4.0280109643936157e-01 1.7927776277065277e-01</leafValues></_>
        <_>
          <internalNodes>
            0 -1 196 -1024996748 1354940445 1633293843 2139396898
            1984447548 240207947 1948534219 160653850</internalNodes>
          <leafValues>
            -3.9509373903274536e-01 2.0793706178665161e-01</leafValues></_>
        <_>
          <internalNodes>
            0 -1 73 -2086471887 395983512 -678706275 829288656
            1602730427 -1940997441 378071256 35587438</internalNodes>
          <leafValues>
            -3.2345318794250488e-01 2.7884802222251892e-01</leafValues></_>
        <_>
          <internalNodes>
            0 -1 81 974741010 -2108634916 812519303 -65466855 -396366415
            -1166527712 1213193195 1247864928</internalNodes>
          <leafValues>
            -4.2057698965072632e-01 1.9665582478046417e-01</leafValues></_>
        <_>
          <internalNodes>
            0 -1 163 -469007612 -1595345601 -1751918832 -302919011
            -788950607 -1178266799 -48240180 1857000616</internalNodes>
          <leafValues>
            -3.3007529377937317e-01 2.8412351012229919e-01</leafValues></_>
        <_>
          <internalNodes>
            0 -1 179 578041957 1045921631 613376097 1919364915 207507925
            142676557 70247377 -98792482</internalNodes>
          <leafValues>
            -3.5479521751403809e-01 2.5273481011390686e-01</leafValues></_>
        <_>
          <internalNodes>
            0 -1 212 -1524798297 797295610 -1558891756 -1705524846
            -602309218 -1452259085 -2092776151 139918003</internalNodes>
          <leafValues>
            -3.3098176121711731e-01 2.8743043541908264e-01</leafValues></_>
        <_>
          <internalNodes>
            0 -1 242 1234949015 329605638 236715795 886780035
            -1386004522 336257563 -1797078247 619573970</internalNodes>
          <leafValues>
            -3.2702982425689697e-01 2.8894507884979248e-01</leafValues></_>
        <_>
          <internalNodes>
            0 -1 105 -248159594 -577736567 -1055221295 1135264098
            324831394 96798856 -129252687 1842160705</internalNodes>
          <leafValues>
            -3.8124981522560120e-01 2.6129481196403503e-01</leafValues></_>
        <_>
          <internalNodes>
            0 -1 101 -1336445353 -1674214057 -775340343 1914360302
            1791507780 -479646830 -46946808 -84483794</internalNodes>
          <leafValues>
            -3.2574614882469177e-01 2.9816579818725586e-01</leafValues></_>
        <_>
          <internalNodes>
            0 -1 118 269770048 432591887 -782962209 657983068
            -1327990312 -543078784 165734086 704645188</internalNodes>
          <leafValues>
            -5.8027333021163940e-01 1.8308642506599426e-01</leafValues></_>
        <_>
          <internalNodes>
            0 -1 75 -289697990 598889014 1250636097 -168909456
            1518308171 472203096 1375048883 -834155120</internalNodes>
          <leafValues>
            -3.6109659075737000e-01 2.8606137633323669e-01</leafValues></_>
        <_>
          <internalNodes>
            0 -1 218 -160195454 -1877868184 1526808625 1414439723
            -1072946684 285231133 -2004680510 -1557701182</internalNodes>
          <leafValues>
            -3.5297256708145142e-01 2.9118454456329346e-01</leafValues></_></weakClassifiers></_>
    <!-- stage 12 -->
    <_>
      <maxWeakCount>15</maxWeakCount>
      <stageThreshold>-1.0914140939712524e+00</stageThreshold>
      <weakClassifiers>
        <_>
          <internalNodes>
            0 -1 52 -1983973453 -1931173076 -241438095 -284428139
            179812607 787335820 453763313 -817658451</internalNodes>
          <leafValues>
            -5.2690970897674561e-01 -2.4896265938878059e-02</leafValues></_>
        <_>
          <internalNodes>
            0 -1 6 -424767977 1724798592 -2074380492 -1018783885
            172235531 337077056 117637751 -957912485</internalNodes>
          <leafValues>
            -3.5303872823715210e-01 2.0769855380058289e-01</leafValues></_>
        <_>
          <internalNodes>
            0 -1 194 246552625 -1097410100 -662503457 -36411393
            -1299917964 -670411786 -829711944 -1094153016</internalNodes>
          <leafValues>
            -3.3684495091438293e-01 2.2810305655002594e-01</leafValues></_>
        <_>
          <internalNodes>
            0 -1 26 -527424958 1644691499 -1775955082 -2055110422
            1892749121 357712238 2021873788 304112211</internalNodes>
          <leafValues>
            -5.0399804115295410e-01 2.0083944499492645e-01</leafValues></_>
        <_>
          <internalNodes>
            0 -1 141 -654052645 -562221911 1330605791 -541377445
            -37820761 -1634555834 1375468285 2111824945</internalNodes>
          <leafValues>
            -2.3509998619556427e-01 3.7683469057083130e-01</leafValues></_>
        <_>
          <internalNodes>
            0 -1 41 -1266694365 575573017 1107571320 1746184406
            1903647509 1728892931 -6423996 1558355814</internalNodes>
          <leafValues>
            -4.2951926589012146e-01 1.9306220114231110e-01</leafValues></_>
        <_>
          <internalNodes>
            0 -1 205 -466147661 461071301 1954811033 -1105746107
            1745412160 876271236 -947060996 1677584998</internalNodes>
          <leafValues>
            -3.0216425657272339e-01 3.0561903119087219e-01</leafValues></_>
        <_>
          <internalNodes>
            0 -1 9 106086482 1544585395 -1039935465 85510862 1528235561
            959750481 -698974724 1831102791</internalNodes>
          <leafValues>
            -4.5349001884460449e-01 1.9201606512069702e-01</leafValues></_>
        <_>
          <internalNodes>
            0 -1 220 752564482 616982656 -62780096 1228977910
            -1669155212 49539251 1071315172 -1359399500</internalNodes>
          <leafValues>
            -4.7533637285232544e-01 1.9376492500305176e-01</leafValues></_>
        <_>
          <internalNodes>
            0 -1 35 688257695 -1761591230 1617926617 -2061479440
            2031980525 -343243531 1903609181 1309541810</internalNodes>
          <leafValues>
            -3.7225875258445740e-01 2.5345894694328308e-01</leafValues></_>
        <_>
          <internalNodes>
            0 -1 97 -1936221261 -1581117212 -251569935 1608227013
            200377584 -1462400310 -976678987 42976469</internalNodes>
          <leafValues>
            -3.3557832241058350e-01 2.8380209207534790e-01</leafValues></_>
        <_>
          <internalNodes>
            0 -1 48 -2075882956 -1328016364 1344930076 -611899944
            1688289104 949305681 -1616749626 1146780882</internalNodes>
          <leafValues>
            -4.6760958433151245e-01 2.0250232517719269e-01</leafValues></_>
        <_>
          <internalNodes>
            0 -1 39 -869877453 -1006180641 1447088989 1187960983
            -275149977 -1884264247 -1755712665 -670656474</internalNodes>
          <leafValues>
            -3.1822457909584045e-01 3.2154452800750732e-01</leafValues></_>
        <_>
          <internalNodes>
            0 -1 207 -1368950910 189813754 -850013263 632390586
            -573596588 1485478287 101560116 9671056</internalNodes>
          <leafValues>
            -5.1635378599166870e-01 1.9749321043491364e-01</leafValues></_>
        <_>
          <internalNodes>
            0 -1 104 1322181290 946080434 -933979385 922920832
            -1731122262 138446890 583779049 407924866</internalNodes>
          <leafValues>
            -5.0289344787597656e-01 1.8822894990444183e-01</leafValues></_></weakClassifiers></_>
    <!-- stage 13 -->
    <_>
      <maxWeakCount>15</maxWeakCount>
      <stageThreshold>-1.1755305528640747e+00</stageThreshold>
      <weakClassifiers>
        <_>
          <internalNodes>
            0 -1 171 7415095 80085175 2013600213 953857404 999742068
            -1242398215 -1666542116 -1118922109</internalNodes>
          <leafValues>
            -5.8678609132766724e-01 -1.0285132378339767e-01</leafValues></_>
        <_>
          <internalNodes>
            0 -1 40 1891806274 892225180 746621750 1275131145 288364352
            -372745638 2053960959 1867995974</internalNodes>
          <leafValues>
            -4.5175191760063171e-01 1.4294460415840149e-01</leafValues></_>
        <_>
          <internalNodes>
            0 -1 159 207683413 517889756 495230399 660904439 -1908573244
            -1159405183 2110730128 -1180685204</internalNodes>
          <leafValues>
            -3.7161180377006531e-01 1.9941391050815582e-01</leafValues></_>
        <_>
          <internalNodes>
            0 -1 244 -50331725 681769462 1860920850 -269551696 607118818
            -1666924641 1093793632 -1040856677</internalNodes>
          <leafValues>
            -2.2482980787754059e-01 3.4477022290229797e-01</leafValues></_>
        <_>
          <internalNodes>
            0 -1 96 -1258624975 450136720 217710299 1277914287
            -219125246 -1409043798 1224931968 -1039599405</internalNodes>
          <leafValues>
            -3.1662449240684509e-01 2.5608986616134644e-01</leafValues></_>
        <_>
          <internalNodes>
            0 -1 60 273100658 -813537606 39505208 -515768230 1335583962
            237240856 206509000 1279749457</internalNodes>
          <leafValues>
            -4.0176108479499817e-01 2.1310037374496460e-01</leafValues></_>
        <_>
          <internalNodes>
            0 -1 78 2090262090 -237973087 -1626242433 1934623204
            -530480180 -1827598147 791118619 1309999243</internalNodes>
          <leafValues>
            -3.3839437365531921e-01 2.5627219676971436e-01</leafValues></_>
        <_>
          <internalNodes>
            0 -1 27 1605104261 -1033611266 -756117782 -17641732
            1935416354 2037186306 -1493768421 -1016594577</internalNodes>
          <leafValues>
            -2.7231991291046143e-01 3.2829201221466064e-01</leafValues></_>
        <_>
          <internalNodes>
            0 -1 238 -1471758686 77345707 1695238100 1933767323
            -1826647159 455790651 1826460098 -1351783873</internalNodes>
          <leafValues>
            -3.2105270028114319e-01 2.8786900639533997e-01</leafValues></_>
        <_>
          <internalNodes>
            0 -1 174 1553456229 -1078706389 3585578 697763406 -3666388
            686227920 68075227 1330374935</internalNodes>
          <leafValues>
            -3.2215344905853271e-01 2.8691276907920837e-01</leafValues></_>
        <_>
          <internalNodes>
            0 -1 38 -1581544293 -2031243296 -1090551824 -101778938
            779548150 -406880265 1526151124 -556944195</internalNodes>
          <leafValues>
            -2.9583650827407837e-01 3.1954538822174072e-01</leafValues></_>
        <_>
          <internalNodes>
            0 -1 151 -390235691 -1321466102 814880065 -1692904634
            1247323589 -973231575 162675400 707712207</internalNodes>
          <leafValues>
            -3.2629066705703735e-01 2.9389947652816772e-01</leafValues></_>
        <_>
          <internalNodes>
            0 -1 257 261570569 942920332 -989007052 1518927336 17037475
            -75318771 1882993856 -666315052</internalNodes>
          <leafValues>
            -3.7030100822448730e-01 2.5203576683998108e-01</leafValues></_>
        <_>
          <internalNodes>
            0 -1 170 -970261049 1559068315 -269668486 859437026
            203870437 1032806778 652185007 -345115217</internalNodes>
          <leafValues>
            -2.2997817397117615e-01 4.3269145488739014e-01</leafValues></_>
        <_>
          <internalNodes>
            0 -1 191 1315982112 1082180126 1652769965 627592338
            828005429 739781320 278395504 344267409</internalNodes>
          <leafValues>
            -5.7383894920349121e-01 1.8179239332675934e-01</leafValues></_></weakClassifiers></_>
    <!-- stage 14 -->
    <_>
      <maxWeakCount>15</maxWeakCount>
      <stageThreshold>-1.2946177721023560e+00</stageThreshold>
      <weakClassifiers>
        <_>
          <internalNodes>
            0 -1 108 1416083199 -543605559 1358257107 -134278209
            -1076757585 -50061590 -290455813 -70679895</internalNodes>
          <leafValues>
            -4.3839541077613831e-01 2.0853859186172485e-01</leafValues></_>
        <_>
          <internalNodes>
            0 -1 129 1752394252 655330159 1854980320 1032476341
            1310659669 1676911137 -46050028 -52257997</internalNodes>
          <leafValues>
            -4.8142933845520020e-01 1.4323928952217102e-01</leafValues></_>
        <_>
          <internalNodes>
            0 -1 90 1154923476 1593732925 1811768883 -271758809
            -42180611 -1149960195 -344520354 -42119905</internalNodes>
          <leafValues>
            -2.5666365027427673e-01 2.8936424851417542e-01</leafValues></_>
        <_>
          <internalNodes>
            0 -1 32 2083135978 319424472 1594522238 -1623963936
            214067448 -72456548 -749786372 -829463430</internalNodes>
          <leafValues>
            -3.1087401509284973e-01 2.5366938114166260e-01</leafValues></_>
        <_>
          <internalNodes>
            0 -1 178 -1586386398 134433315 1767266850 578436142
            269049936 221199716 2017242626 74693075</internalNodes>
          <leafValues>
            -6.1614471673965454e-01 1.6684706509113312e-01</leafValues></_>
        <_>
          <internalNodes>
            0 -1 185 603988561 495890589 1485015504 -1413047838
            529492955 530088458 935301052 768617280</internalNodes>
          <leafValues>
            -4.5862597227096558e-01 1.7268636822700500e-01</leafValues></_>
        <_>
          <internalNodes>
            0 -1 14 1560268391 646993001 -1173178500 452718058 270222614
            38556913 -192855905 -1257217421</internalNodes>
          <leafValues>
            -3.7370935082435608e-01 2.2328135371208191e-01</leafValues></_>
        <_>
          <internalNodes>
            0 -1 249 -252338961 -1364419857 -1498052872 90109684
            779517657 -1043812366 -314716560 -746595348</internalNodes>
          <leafValues>
            -2.5516167283058167e-01 3.3360487222671509e-01</leafValues></_>
        <_>
          <internalNodes>
            0 -1 64 -567391105 1392659456 -1877718532 -1524553019
            142558109 -1758814155 -2104067403 117789307</internalNodes>
          <leafValues>
            -3.4387868642807007e-01 2.6033633947372437e-01</leafValues></_>
        <_>
          <internalNodes>
            0 -1 200 1685516208 1033023154 1462076513 383410401
            1074973951 -921374205 1301821611 314993843</internalNodes>
          <leafValues>
            -3.7844601273536682e-01 2.4158544838428497e-01</leafValues></_>
        <_>
          <internalNodes>
            0 -1 109 -698293500 -267889593 1422305286 -1195866380
            601927824 -1503615685 1010521564 430031426</internalNodes>
          <leafValues>
            -4.8588928580284119e-01 1.8809744715690613e-01</leafValues></_>
        <_>
          <internalNodes>
            0 -1 187 -1352716354 532785445 -774585801 -49723832
            1209791673 1242683426 1752625790 1926146011</internalNodes>
          <leafValues>
            -3.0283287167549133e-01 3.2238796353340149e-01</leafValues></_>
        <_>
          <internalNodes>
            0 -1 240 782937824 1812269027 2133517769 -1802968504
            31249300 -507740134 1365605593 135350625</internalNodes>
          <leafValues>
            -5.3248304128646851e-01 1.7278334498405457e-01</leafValues></_>
        <_>
          <internalNodes>
            0 -1 106 -838341942 -2146703931 -1185412316 -1087945776
            -355353706 -1987475316 932761789 -934211383</internalNodes>
          <leafValues>
            -3.3546131849288940e-01 2.9030427336692810e-01</leafValues></_>
        <_>
          <internalNodes>
            0 -1 247 1906004818 1586467671 1955121078 579914268
            -1207252220 959563782 -1138078725 -164647575</internalNodes>
          <leafValues>
            -3.2564595341682434e-01 3.0769664049148560e-01</leafValues></_></weakClassifiers></_>
    <!-- stage 15 -->
    <_>
      <maxWeakCount>15</maxWeakCount>
      <stageThreshold>-9.5466637611389160e-01</stageThreshold>
      <weakClassifiers>
        <_>
          <internalNodes>
            0 -1 180 -2010391793 -1151635113 173624701 822899017
            -1958258280 -833626851 -374619234 -1151492139</internalNodes>
          <leafValues>
            -5.2680069208145142e-01 -3.2012194395065308e-02</leafValues></_>
        <_>
          <internalNodes>
            0 -1 202 290383196 390396114 -716081296 -555305646
            -1447052811 -1617286911 1706810260 -1631815468</internalNodes>
          <leafValues>
            -3.5686361789703369e-01 1.7966465651988983e-01</leafValues></_>
        <_>
          <internalNodes>
            0 -1 135 1794407188 549389598 782404483 -1089402589
            -532101058 961932025 1143538711 791890955</internalNodes>
          <leafValues>
            -4.0615957975387573e-01 1.7940349876880646e-01</leafValues></_>
        <_>
          <internalNodes>
            0 -1 87 -729488576 1083184306 -66856296 -294319564
            2021723968 -1202779986 -1293207538 642148105</internalNodes>
          <leafValues>
            -4.5385336875915527e-01 1.9498550891876221e-01</leafValues></_>
        <_>
          <internalNodes>
            0 -1 140 -28387694 1448171140 -1811480295 1091781328
            1401296992 1762329378 1414304400 -287086680</internalNodes>
          <leafValues>
            -2.9718455672264099e-01 2.7218028903007507e-01</leafValues></_>
        <_>
          <internalNodes>
            0 -1 246 -2082602940 -941862278 1380402009 914047450
            -734366568 2038792402 671619480 -1107137006</internalNodes>
          <leafValues>
            -4.2494946718215942e-01 2.0052100718021393e-01</leafValues></_>
        <_>
          <internalNodes>
            0 -1 221 1509392518 298584540 1244446339 -1354562989
            1817581148 -1698995792 -52921808 800290563</internalNodes>
          <leafValues>
            -3.8055887818336487e-01 2.2680975496768951e-01</leafValues></_>
        <_>
          <internalNodes>
            0 -1 46 -354959333 -1594795509 2654290 1956124599 -71161852
            562270478 81946 -167512305</internalNodes>
          <leafValues>
            -3.5055395960807800e-01 2.4631956219673157e-01</leafValues></_>
        <_>
          <internalNodes>
            0 -1 86 -4744253 1272173359 -502145711 130175011 -1992848038
            286826543 -780089354 159642147</internalNodes>
          <leafValues>
            -3.4493285417556763e-01 2.6255041360855103e-01</leafValues></_>
        <_>
          <internalNodes>
            0 -1 121 -481967692 1141876460 229773343 -1329082189
            -1466828996 -917207550 -1231438699 1280041254</internalNodes>
          <leafValues>
            -3.7521868944168091e-01 2.4935850501060486e-01</leafValues></_>
        <_>
          <internalNodes>
            0 -1 204 1895030980 427184662 1842486200 -1382219158
            1214579852 1950844963 358771294 783435615</internalNodes>
          <leafValues>
            -4.1534921526908875e-01 2.2774870693683624e-01</leafValues></_>
        <_>
          <internalNodes>
            0 -1 206 1223108253 -869536137 1845479223 -886350721
            -910967401 -588777611 91727037 -1425312815</internalNodes>
          <leafValues>
            -2.8431001305580139e-01 3.4431383013725281e-01</leafValues></_>
        <_>
          <internalNodes>
            0 -1 4 -1472960990 -1582849660 285345394 -719395212
            -2133451063 1815914885 72098598 -447224458</internalNodes>
          <leafValues>
            -3.5926994681358337e-01 2.7322074770927429e-01</leafValues></_>
        <_>
          <internalNodes>
            0 -1 131 -1531328811 -537134421 -1367646465 -168288585
            -284180994 -1963181262 203018135 -1089611023</internalNodes>
          <leafValues>
            -2.5174513459205627e-01 3.9813241362571716e-01</leafValues></_>
        <_>
          <internalNodes>
            0 -1 137 1187308106 -1827382568 256388188 -1910927590
            1347059295 1414537416 1570169358 39184290</internalNodes>
          <leafValues>
            -4.6112754940986633e-01 2.2228781878948212e-01</leafValues></_></weakClassifiers></_>
    <!-- stage 16 -->
    <_>
      <maxWeakCount>14</maxWeakCount>
      <stageThreshold>-1.3082234859466553e+00</stageThreshold>
      <weakClassifiers>
        <_>
          <internalNodes>
            0 -1 125 1240354775 813462740 1888917500 -94860836 370871232
            795905631 -104998412 -84550980</internalNodes>
          <leafValues>
            -5.8576053380966187e-01 -1.1592632532119751e-01</leafValues></_>
        <_>
          <internalNodes>
            0 -1 62 -1225894912 -871497170 -1542630055 1716003465
            -124462785 -1725161125 41996094 1310218846</internalNodes>
          <leafValues>
            -4.6838846802711487e-01 1.2970265746116638e-01</leafValues></_>
        <_>
          <internalNodes>
            0 -1 72 -1423788646 740615362 -669516913 -351416087
            976195961 -765165045 151153129 -1966488496</internalNodes>
          <leafValues>
            -3.3391520380973816e-01 2.1381184458732605e-01</leafValues></_>
        <_>
          <internalNodes>
            0 -1 65 -797121424 1214294092 416992044 -961424180
            1020563924 -705592911 -168275662 553992237</internalNodes>
          <leafValues>
            -4.8084694147109985e-01 1.7526637017726898e-01</leafValues></_>
        <_>
          <internalNodes>
            0 -1 175 1604503612 253834966 1507523107 -100585470
            -1939665126 1262651972 1357831110 2092586751</internalNodes>
          <leafValues>
            -3.5183215141296387e-01 2.2291049361228943e-01</leafValues></_>
        <_>
          <internalNodes>
            0 -1 102 1385425479 1272816880 1474493638 218839517
            -1052581580 -736391552 -576536031 1482103408</internalNodes>
          <leafValues>
            -3.5206204652786255e-01 2.4202266335487366e-01</leafValues></_>
        <_>
          <internalNodes>
            0 -1 143 -1839292668 -1460986624 -1593167287 -1901618793
            840931328 -1956190140 -1434562845 173789192</internalNodes>
          <leafValues>
            -4.5258602499961853e-01 1.8183214962482452e-01</leafValues></_>
        <_>
          <internalNodes>
            0 -1 45 -557871105 -1618560219 1781496851 -469795674
            -1028686401 -92363168 2021027709 -1645249153</internalNodes>
          <leafValues>
            -2.1501633524894714e-01 4.0264296531677246e-01</leafValues></_>
        <_>
          <internalNodes>
            0 -1 132 1694491907 674555339 778473472 693676100 1868378162
            1297205987 876559372 609025894</internalNodes>
          <leafValues>
            -4.5964220166206360e-01 1.9725093245506287e-01</leafValues></_>
        <_>
          <internalNodes>
            0 -1 127 1528705172 1711853802 1418908123 1363919754
            1430878205 73236824 -580307775 964636663</internalNodes>
          <leafValues>
            -3.8077786564826965e-01 2.4163851141929626e-01</leafValues></_>
        <_>
          <internalNodes>
            0 -1 5 -297117177 1571612362 -2012627055 1438325455
            1504908533 -263229100 1654606687 1891688502</internalNodes>
          <leafValues>
            -3.2891336083412170e-01 2.8306218981742859e-01</leafValues></_>
        <_>
          <internalNodes>
            0 -1 128 -904254832 -1627707769 1397020991 1603349185
            1278093656 1243933760 -56166304 469951748</internalNodes>
          <leafValues>
            -4.9242860078811646e-01 1.7881350219249725e-01</leafValues></_>
        <_>
          <internalNodes>
            0 -1 50 -357774786 428071225 -964515811 -1032183778
            -1182904620 -1819778087 -828158200 1917929003</internalNodes>
          <leafValues>
            -4.0647074580192566e-01 2.3492468893527985e-01</leafValues></_>
        <_>
          <internalNodes>
            0 -1 23 1917151679 -1064765984 738939578 -321532378
            1530089876 1702208019 1212798487 1876422933</internalNodes>
          <leafValues>
            -3.6382517218589783e-01 2.6987579464912415e-01</leafValues></_></weakClassifiers></_>
    <!-- stage 17 -->
    <_>
      <maxWeakCount>15</maxWeakCount>
      <stageThreshold>-1.0676597356796265e+00</stageThreshold>
      <weakClassifiers>
        <_>
          <internalNodes>
            0 -1 147 -608174345 -128236811 -2103719713 1939817638
            -1128284205 -359511552 -1081091085 -68432961</internalNodes>
          <leafValues>
            -4.6057817339897156e-01 1.5548780560493469e-01</leafValues></_>
        <_>
          <internalNodes>
            0 -1 80 -1638702657 1044746455 2084929630 2128232694
            -1190497413 957417832 -2003185500 -1103697614</internalNodes>
          <leafValues>
            -3.3809447288513184e-01 2.0829480886459351e-01</leafValues></_>
        <_>
          <internalNodes>
            0 -1 253 1838645800 168612875 -1705656108 646566770
            1841156196 217531679 -71998992 -2116696366</internalNodes>
          <leafValues>
            -4.0104728937149048e-01 1.7839987576007843e-01</leafValues></_>
        <_>
          <internalNodes>
            0 -1 71 763422672 1337103096 927860181 -1455677291
            -1577549569 -1471553893 1560635556 140266334</internalNodes>
          <leafValues>
            -4.3294832110404968e-01 1.7103113234043121e-01</leafValues></_>
        <_>
          <internalNodes>
            0 -1 234 1296898176 939382824 173639485 -1324501123
            -1667321037 1213891205 1073992192 150331221</internalNodes>
          <leafValues>
            -3.8111278414726257e-01 2.1904629468917847e-01</leafValues></_>
        <_>
          <internalNodes>
            0 -1 198 -1474657609 304724743 1812366643 552006233
            464981280 1078076717 -1030201212 1583086646</internalNodes>
          <leafValues>
            -3.7499785423278809e-01 2.1665292978286743e-01</leafValues></_>
        <_>
          <internalNodes>
            0 -1 85 -502280053 1199609515 1486478465 1945105109
            -51962880 -281407031 910496291 391017730</internalNodes>
          <leafValues>
            -3.3032742142677307e-01 2.5962820649147034e-01</leafValues></_>
        <_>
          <internalNodes>
            0 -1 43 -434551401 -1407811062 1564573179 -943405839
            -108485205 -393877352 1775720834 1005515632</internalNodes>
          <leafValues>
            -3.0625572800636292e-01 2.9194435477256775e-01</leafValues></_>
        <_>
          <internalNodes>
            0 -1 124 1725196884 -656912613 1633030684 898634122
            -433561107 -1459419046 -1424155912 -1442831976</internalNodes>
          <leafValues>
            -3.8527238368988037e-01 2.2450761497020721e-01</leafValues></_>
        <_>
          <internalNodes>
            0 -1 22 498314275 -1630874233 552735 -1656574394 56854437
            -1399934662 1913354587 -580355756</internalNodes>
          <leafValues>
            -3.1857615709304810e-01 2.9402700066566467e-01</leafValues></_>
        <_>
          <internalNodes>
            0 -1 16 -1428174134 976330823 -837110246 -431603092
            1888957248 2038859782 -1903933088 1884640020</internalNodes>
          <leafValues>
            -5.3503483533859253e-01 1.6110271215438843e-01</leafValues></_>
        <_>
          <internalNodes>
            0 -1 79 -811939332 209481813 -313981397 -547624847
            1462835948 -217511781 660564460 1952395389</internalNodes>
          <leafValues>
            -3.4720697999000549e-01 2.6104626059532166e-01</leafValues></_>
        <_>
          <internalNodes>
            0 -1 133 1157234759 -590687952 137622367 718489886
            -1287571713 987353995 1058404555 -1906100049</internalNodes>
          <leafValues>
            -2.9309487342834473e-01 3.2393544912338257e-01</leafValues></_>
        <_>
          <internalNodes>
            0 -1 3 -1356822976 -458379761 71538770 1109656674 -786662225
            -47438017 1031884413 1217429282</internalNodes>
          <leafValues>
            -4.8031604290008545e-01 1.9331376254558563e-01</leafValues></_>
        <_>
          <internalNodes>
            0 -1 13 -1026093530 1298836311 1679406710 -811009413
            1647781934 961362076 675375156 2019832164</internalNodes>
          <leafValues>
            -4.9876853823661804e-01 1.7868262529373169e-01</leafValues></_></weakClassifiers></_>
    <!-- stage 18 -->
    <_>
      <maxWeakCount>14</maxWeakCount>
      <stageThreshold>-9.9059528112411499e-01</stageThreshold>
      <weakClassifiers>
        <_>
          <internalNodes>
            0 -1 74 -622486541 -38738833 -644724231 -107652999
            1770371007 -1189311837 -1104880449 -7494771</internalNodes>
          <leafValues>
            -4.6617048978805542e-01 1.0483870655298233e-01</leafValues></_>
        <_>
          <internalNodes>
            0 -1 158 173152339 -187813418 1447254902 275735614
            -1082524684 -39145407 -1633108069 -1201137064</internalNodes>
          <leafValues>
            -3.3219796419143677e-01 1.9419014453887939e-01</leafValues></_>
        <_>
          <internalNodes>
            0 -1 91 1218211654 -1848453860 -1444929710 -1424027583
            664971173 -185462311 65505689 1487348599</internalNodes>
          <leafValues>
            -3.2087609171867371e-01 2.2479629516601562e-01</leafValues></_>
        <_>
          <internalNodes>
            0 -1 173 -400733608 305307201 -357141672 -1675143213
            1848296652 -1160005244 -994084350 187394911</internalNodes>
          <leafValues>
            -3.6088594794273376e-01 2.0063252747058868e-01</leafValues></_>
        <_>
          <internalNodes>
            0 -1 230 1356732692 441498160 1174969588 106215477
            1487716032 -769981248 1517215866 991958994</internalNodes>
          <leafValues>
            -4.4552880525588989e-01 1.8025338649749756e-01</leafValues></_>
        <_>
          <internalNodes>
            0 -1 84 -268997118 43958198 1181354192 1727257056 1673596944
            2061649152 854033664 1280278945</internalNodes>
          <leafValues>
            -4.5947003364562988e-01 1.8915292620658875e-01</leafValues></_>
        <_>
          <internalNodes>
            0 -1 70 1391427027 841999902 -2030109070 -190156945
            1748271988 -353995147 1023894623 -257196362</internalNodes>
          <leafValues>
            -2.7664604783058167e-01 2.8525066375732422e-01</leafValues></_>
        <_>
          <internalNodes>
            0 -1 89 1619339124 1779077214 1099081788 1430495745
            828807904 -12747317 183501625 1710974002</internalNodes>
          <leafValues>
            -3.5801738500595093e-01 2.4022772908210754e-01</leafValues></_>
        <_>
          <internalNodes>
            0 -1 76 1459143200 839435533 56577466 705457311 1987079181
            -2038430293 -937497311 139748215</internalNodes>
          <leafValues>
            -5.0445026159286499e-01 1.5657231211662292e-01</leafValues></_>
        <_>
          <internalNodes>
            0 -1 20 976196370 -1635347278 1364723533 1938571389
            -1558058917 1553198985 1117909919 -940083958</internalNodes>
          <leafValues>
            -3.0814442038536072e-01 2.8788879513740540e-01</leafValues></_>
        <_>
          <internalNodes>
            0 -1 181 -2046647805 895453227 1783841245 1108499416
            1322616077 -586151723 -65797207 -1743362109</internalNodes>
          <leafValues>
            -3.6296746134757996e-01 2.5418546795845032e-01</leafValues></_>
        <_>
          <internalNodes>
            0 -1 235 1692844160 411617320 949515824 -1881475423
            1804323445 19112158 -377346416 11266386</internalNodes>
          <leafValues>
            -4.8464930057525635e-01 1.8254570662975311e-01</leafValues></_>
        <_>
          <internalNodes>
            0 -1 226 -53158799 -788529170 1270779006 -72012103
            -1904763514 -294281521 -27579618 -3621196</internalNodes>
          <leafValues>
            -2.3544397950172424e-01 3.9987936615943909e-01</leafValues></_>
        <_>
          <internalNodes>
            0 -1 98 -628652905 -807501362 -1838253811 -1355029053
            1379432122 -635862247 -549538213 -539101623</internalNodes>
          <leafValues>
            -2.0428887009620667e-01 4.3817830085754395e-01</leafValues></_></weakClassifiers></_>
    <!-- stage 19 -->
    <_>
      <maxWeakCount>15</maxWeakCount>
      <stageThreshold>-1.1429357528686523e+00</stageThreshold>
      <weakClassifiers>
        <_>
          <internalNodes>
            0 -1 148 -539513859 459325211 1839420317 -1081962350
            1944775647 82757403 1304306891 -67382273</internalNodes>
          <leafValues>
            -4.8747316002845764e-01 6.8432673811912537e-02</leafValues></_>
        <_>
          <internalNodes>
            0 -1 25 -3680725 -831797645 -1975266596 1385147103
            1380647966 537854561 -1018768581 -1269042617</internalNodes>
          <leafValues>
            -2.8299880027770996e-01 2.5377711653709412e-01</leafValues></_>
        <_>
          <internalNodes>
            0 -1 51 1781006738 373969542 -1869526057 1479151876
            -1998201100 -54630496 -267799567 1242845216</internalNodes>
          <leafValues>
            -5.0284934043884277e-01 1.4407503604888916e-01</leafValues></_>
        <_>
          <internalNodes>
            0 -1 94 1359517568 -510868566 85618810 -1108546917 711188977
            454144642 142920523 -2080431501</internalNodes>
          <leafValues>
            -3.0510655045509338e-01 2.6933568716049194e-01</leafValues></_>
        <_>
          <internalNodes>
            0 -1 144 -755012833 532230195 -268603734 -1441382794
            1131251833 590226506 1851075828 -33554918</internalNodes>
          <leafValues>
            -2.5240224599838257e-01 3.1617230176925659e-01</leafValues></_>
        <_>
          <internalNodes>
            0 -1 93 -1887326950 769169864 1077691774 -521268218
            436724564 439982625 547021732 865310886</internalNodes>
          <leafValues>
            -5.5090779066085815e-01 1.5429915487766266e-01</leafValues></_>
        <_>
          <internalNodes>
            0 -1 31 173412986 39873008 1314887186 2018302052 -989275202
            -1993109342 2053188990 -136986420</internalNodes>
          <leafValues>
            -3.8757431507110596e-01 2.0629572868347168e-01</leafValues></_>
        <_>
          <internalNodes>
            0 -1 110 653255186 1507687083 -1853016428 623471143
            406855708 2101942483 -1465472939 28773155</internalNodes>
          <leafValues>
            -4.6517905592918396e-01 1.8768306076526642e-01</leafValues></_>
        <_>
          <internalNodes>
            0 -1 53 -1902406983 -1918229452 -167776297 -137497372
            -1447174226 -1419268192 905616687 -624958122</internalNodes>
          <leafValues>
            -2.5818502902984619e-01 3.6837312579154968e-01</leafValues></_>
        <_>
          <internalNodes>
            0 -1 119 -1944798532 1870955013 1326904768 -1982443050
            1445731289 -330760152 -55755976 943855631</internalNodes>
          <leafValues>
            -3.9095389842987061e-01 2.2921751439571381e-01</leafValues></_>
        <_>
          <internalNodes>
            0 -1 99 466429283 487208325 -1726971073 517819075 198145533
            -869564263 1841794274 -1703419378</internalNodes>
          <leafValues>
            -2.9753908514976501e-01 3.0541166663169861e-01</leafValues></_>
        <_>
          <internalNodes>
            0 -1 176 -1163707841 1059454636 410027950 1527762937
            2096627102 -1363730568 -1608123365 -249172759</internalNodes>
          <leafValues>
            -2.2574034333229065e-01 4.0654903650283813e-01</leafValues></_>
        <_>
          <internalNodes>
            0 -1 251 -421690749 2139985639 2063159028 541048747
            -35653812 532577589 -1001022414 -100053139</internalNodes>
          <leafValues>
            -2.9273968935012817e-01 3.1603363156318665e-01</leafValues></_>
        <_>
          <internalNodes>
            0 -1 54 136297258 -1400799062 -1019083791 -925895711
            401649795 646349440 1503183744 -875478784</internalNodes>
          <leafValues>
            -3.7522843480110168e-01 2.5528618693351746e-01</leafValues></_>
        <_>
          <internalNodes>
            0 -1 122 -1585195083 -496497609 1988217514 1690956958
            -362105456 -352092796 -934252160 480789271</internalNodes>
          <leafValues>
            -4.0278404951095581e-01 2.3584043979644775e-01</leafValues></_></weakClassifiers></_></stages>
  <features>
    <_>
      <rect>
        0 0 3 4</rect></_>
    <_>
      <rect>
        0 0 5 4</rect></_>
    <_>
      <rect>
        0 1 8 8</rect></_>
    <_>
      <rect>
        0 1 9 5</rect></_>
    <_>
      <rect>
        0 6 2 3</rect></_>
    <_>
      <rect>
        0 9 4 7</rect></_>
    <_>
      <rect>
        0 9 5 5</rect></_>
    <_>
      <rect>
        0 13 7 8</rect></_>
    <_>
      <rect>
        0 15 2 2</rect></_>
    <_>
      <rect>
        0 15 4 7</rect></_>
    <_>
      <rect>
        0 17 3 2</rect></_>
    <_>
      <rect>
        0 18 2 1</rect></_>
    <_>
      <rect>
        0 19 7 6</rect></_>
    <_>
      <rect>
        0 19 9 7</rect></_>
    <_>
      <rect>
        0 21 3 3</rect></_>
    <_>
      <rect>
        0 22 3 5</rect></_>
    <_>
      <rect>
        0 30 5 3</rect></_>
    <_>
      <rect>
        1 0 7 3</rect></_>
    <_>
      <rect>
        1 0 9 5</rect></_>
    <_>
      <rect>
        1 1 7 4</rect></_>
    <_>
      <rect>
        1 2 2 2</rect></_>
    <_>
      <rect>
        1 2 8 7</rect></_>
    <_>
      <rect>
        1 7 3 5</rect></_>
    <_>
      <rect>
        1 7 7 5</rect></_>
    <_>
      <rect>
        1 8 6 3</rect></_>
    <_>
      <rect>
        1 18 1 1</rect></_>
    <_>
      <rect>
        1 19 8 5</rect></_>
    <_>
      <rect>
        1 20 1 1</rect></_>
    <_>
      <rect>
        1 22 2 1</rect></_>
    <_>
      <rect>
        1 29 13 3</rect></_>
    <_>
      <rect>
        1 34 9 2</rect></_>
    <_>
      <rect>
        2 0 10 3</rect></_>
    <_>
      <rect>
        2 1 3 4</rect></_>
    <_>
      <rect>
        2 2 11 12</rect></_>
    <_>
      <rect>
        2 3 4 3</rect></_>
    <_>
      <rect>
        2 4 4 4</rect></_>
    <_>
      <rect>
        2 4 5 11</rect></_>
    <_>
      <rect>
        2 4 6 4</rect></_>
    <_>
      <rect>
        2 5 1 1</rect></_>
    <_>
      <rect>
        2 5 11 7</rect></_>
    <_>
      <rect>
        2 20 6 5</rect></_>
    <_>
      <rect>
        2 34 3 2</rect></_>
    <_>
      <rect>
        3 0 9 6</rect></_>
    <_>
      <rect>
        3 0 9 7</rect></_>
    <_>
      <rect>
        3 4 3 4</rect></_>
    <_>
      <rect>
        3 7 3 4</rect></_>
    <_>
      <rect>
        3 22 1 1</rect></_>
    <_>
      <rect>
        3 22 11 6</rect></_>
    <_>
      <rect>
        3 25 11 3</rect></_>
    <_>
      <rect>
        3 28 3 3</rect></_>
    <_>
      <rect>
        3 29 5 3</rect></_>
    <_>
      <rect>
        4 0 4 10</rect></_>
    <_>
      <rect>
        4 4 1 1</rect></_>
    <_>
      <rect>
        4 5 1 1</rect></_>
    <_>
      <rect>
        4 7 1 1</rect></_>
    <_>
      <rect>
        4 7 6 6</rect></_>
    <_>
      <rect>
        4 11 3 5</rect></_>
    <_>
      <rect>
        4 11 5 5</rect></_>
    <_>
      <rect>
        4 19 11 7</rect></_>
    <_>
      <rect>
        4 27 8 4</rect></_>
    <_>
      <rect>
        5 3 5 6</rect></_>
    <_>
      <rect>
        5 4 6 10</rect></_>
    <_>
      <rect>
        5 8 6 10</rect></_>
    <_>
      <rect>
        5 11 6 5</rect></_>
    <_>
      <rect>
        5 12 4 6</rect></_>
    <_>
      <rect>
        5 26 9 3</rect></_>
    <_>
      <rect>
        5 28 10 3</rect></_>
    <_>
      <rect>
        5 35 2 1</rect></_>
    <_>
      <rect>
        6 1 1 1</rect></_>
    <_>
      <rect>
        6 30 10 3</rect></_>
    <_>
      <rect>
        6 33 2 2</rect></_>
    <_>
      <rect>
        7 0 3 4</rect></_>
    <_>
      <rect>
        7 3 1 2</rect></_>
    <_>
      <rect>
        7 4 3 4</rect></_>
    <_>
      <rect>
        7 4 8 3</rect></_>
    <_>
      <rect>
        7 9 6 5</rect></_>
    <_>
      <rect>
        7 19 6 4</rect></_>
    <_>
      <rect>
        7 23 5 4</rect></_>
    <_>
      <rect>
        7 26 4 3</rect></_>
    <_>
      <rect>
        7 30 4 3</rect></_>
    <_>
      <rect>
        7 37 5 1</rect></_>
    <_>
      <rect>
        8 0 7 8</rect></_>
    <_>
      <rect>
        8 1 8 9</rect></_>
    <_>
      <rect>
        8 3 1 1</rect></_>
    <_>
      <rect>
        8 8 6 4</rect></_>
    <_>
      <rect>
        8 18 9 7</rect></_>
    <_>
      <rect>
        8 22 10 6</rect></_>
    <_>
      <rect>
        8 23 8 4</rect></_>
    <_>
      <rect>
        8 28 4 3</rect></_>
    <_>
      <rect>
        8 29 5 2</rect></_>
    <_>
      <rect>
        8 31 6 3</rect></_>
    <_>
      <rect>
        8 31 7 2</rect></_>
    <_>
      <rect>
        8 36 2 1</rect></_>
    <_>
      <rect>
        8 37 8 1</rect></_>
    <_>
      <rect>
        9 1 4 4</rect></_>
    <_>
      <rect>
        9 1 6 5</rect></_>
    <_>
      <rect>
        9 1 9 8</rect></_>
    <_>
      <rect>
        9 3 1 1</rect></_>
    <_>
      <rect>
        9 10 8 10</rect></_>
    <_>
      <rect>
        9 18 3 4</rect></_>
    <_>
      <rect>
        9 18 6 3</rect></_>
    <_>
      <rect>
        9 36 2 1</rect></_>
    <_>
      <rect>
        10 0 8 9</rect></_>
    <_>
      <rect>
        10 1 6 4</rect></_>
    <_>
      <rect>
        10 1 6 5</rect></_>
    <_>
      <rect>
        10 2 6 3</rect></_>
    <_>
      <rect>
        10 3 2 1</rect></_>
    <_>
      <rect>
        10 3 7 3</rect></_>
    <_>
      <rect>
        10 4 8 3</rect></_>
    <_>
      <rect>
        10 23 5 4</rect></_>
    <_>
      <rect>
        10 27 7 4</rect></_>
    <_>
      <rect>
        10 31 3 3</rect></_>
    <_>
      <rect>
        10 31 7 3</rect></_>
    <_>
      <rect>
        10 37 3 1</rect></_>
    <_>
      <rect>
        10 37 6 1</rect></_>
    <_>
      <rect>
        11 1 9 8</rect></_>
    <_>
      <rect>
        11 4 7 5</rect></_>
    <_>
      <rect>
        11 11 6 9</rect></_>
    <_>
      <rect>
        11 26 2 3</rect></_>
    <_>
      <rect>
        11 26 9 3</rect></_>
    <_>
      <rect>
        11 29 5 3</rect></_>
    <_>
      <rect>
        12 3 6 5</rect></_>
    <_>
      <rect>
        12 3 8 10</rect></_>
    <_>
      <rect>
        12 30 1 1</rect></_>
    <_>
      <rect>
        12 32 2 2</rect></_>
    <_>
      <rect>
        12 36 3 1</rect></_>
    <_>
      <rect>
        12 37 3 1</rect></_>
    <_>
      <rect>
        13 0 5 4</rect></_>
    <_>
      <rect>
        13 0 7 6</rect></_>
    <_>
      <rect>
        13 0 9 2</rect></_>
    <_>
      <rect>
        13 1 6 5</rect></_>
    <_>
      <rect>
        13 4 5 7</rect></_>
    <_>
      <rect>
        13 17 5 3</rect></_>
    <_>
      <rect>
        13 24 2 2</rect></_>
    <_>
      <rect>
        13 26 5 4</rect></_>
    <_>
      <rect>
        13 30 4 3</rect></_>
    <_>
      <rect>
        13 35 2 1</rect></_>
    <_>
      <rect>
        14 0 4 3</rect></_>
    <_>
      <rect>
        14 0 8 10</rect></_>
    <_>
      <rect>
        14 1 5 4</rect></_>
    <_>
      <rect>
        14 12 2 2</rect></_>
    <_>
      <rect>
        15 0 6 6</rect></_>
    <_>
      <rect>
        15 3 5 9</rect></_>
    <_>
      <rect>
        15 6 8 8</rect></_>
    <_>
      <rect>
        15 12 4 4</rect></_>
    <_>
      <rect>
        15 31 4 3</rect></_>
    <_>
      <rect>
        15 33 1 2</rect></_>
    <_>
      <rect>
        16 0 4 10</rect></_>
    <_>
      <rect>
        16 4 3 3</rect></_>
    <_>
      <rect>
        16 5 8 6</rect></_>
    <_>
      <rect>
        16 9 7 6</rect></_>
    <_>
      <rect>
        16 12 5 7</rect></_>
    <_>
      <rect>
        16 16 8 4</rect></_>
    <_>
      <rect>
        16 23 4 4</rect></_>
    <_>
      <rect>
        16 27 3 3</rect></_>
    <_>
      <rect>
        16 30 6 2</rect></_>
    <_>
      <rect>
        16 31 6 3</rect></_>
    <_>
      <rect>
        16 32 1 1</rect></_>
    <_>
      <rect>
        16 33 1 1</rect></_>
    <_>
      <rect>
        16 34 2 2</rect></_>
    <_>
      <rect>
        16 36 2 1</rect></_>
    <_>
      <rect>
        17 2 3 5</rect></_>
    <_>
      <rect>
        17 3 5 5</rect></_>
    <_>
      <rect>
        17 24 5 3</rect></_>
    <_>
      <rect>
        17 31 1 1</rect></_>
    <_>
      <rect>
        17 31 1 2</rect></_>
    <_>
      <rect>
        17 32 2 2</rect></_>
    <_>
      <rect>
        17 37 2 1</rect></_>
    <_>
      <rect>
        17 37 5 1</rect></_>
    <_>
      <rect>
        18 1 5 4</rect></_>
    <_>
      <rect>
        18 8 2 3</rect></_>
    <_>
      <rect>
        18 34 2 1</rect></_>
    <_>
      <rect>
        19 0 7 3</rect></_>
    <_>
      <rect>
        19 2 7 4</rect></_>
    <_>
      <rect>
        19 3 7 5</rect></_>
    <_>
      <rect>
        19 4 4 4</rect></_>
    <_>
      <rect>
        19 7 5 6</rect></_>
    <_>
      <rect>
        19 7 7 5</rect></_>
    <_>
      <rect>
        19 10 7 5</rect></_>
    <_>
      <rect>
        19 11 4 5</rect></_>
    <_>
      <rect>
        19 11 5 7</rect></_>
    <_>
      <rect>
        19 16 4 4</rect></_>
    <_>
      <rect>
        19 29 7 3</rect></_>
    <_>
      <rect>
        19 33 1 1</rect></_>
    <_>
      <rect>
        19 33 2 1</rect></_>
    <_>
      <rect>
        19 33 2 2</rect></_>
    <_>
      <rect>
        19 37 2 1</rect></_>
    <_>
      <rect>
        20 6 4 5</rect></_>
    <_>
      <rect>
        20 11 5 6</rect></_>
    <_>
      <rect>
        20 15 4 6</rect></_>
    <_>
      <rect>
        20 23 6 4</rect></_>
    <_>
      <rect>
        20 26 4 3</rect></_>
    <_>
      <rect>
        20 28 3 3</rect></_>
    <_>
      <rect>
        20 32 1 1</rect></_>
    <_>
      <rect>
        20 34 1 1</rect></_>
    <_>
      <rect>
        21 1 6 2</rect></_>
    <_>
      <rect>
        21 6 4 3</rect></_>
    <_>
      <rect>
        21 13 3 5</rect></_>
    <_>
      <rect>
        21 16 3 2</rect></_>
    <_>
      <rect>
        21 20 2 3</rect></_>
    <_>
      <rect>
        21 30 4 3</rect></_>
    <_>
      <rect>
        21 32 1 1</rect></_>
    <_>
      <rect>
        21 36 2 1</rect></_>
    <_>
      <rect>
        22 1 6 5</rect></_>
    <_>
      <rect>
        22 7 4 3</rect></_>
    <_>
      <rect>
        22 11 4 3</rect></_>
    <_>
      <rect>
        22 19 3 3</rect></_>
    <_>
      <rect>
        22 26 6 4</rect></_>
    <_>
      <rect>
        22 31 5 3</rect></_>
    <_>
      <rect>
        22 32 2 2</rect></_>
    <_>
      <rect>
        22 36 1 1</rect></_>
    <_>
      <rect>
        22 37 1 1</rect></_>
    <_>
      <rect>
        23 30 5 2</rect></_>
    <_>
      <rect>
        23 31 1 1</rect></_>
    <_>
      <rect>
        23 35 2 1</rect></_>
    <_>
      <rect>
        23 36 2 1</rect></_>
    <_>
      <rect>
        23 37 2 1</rect></_>
    <_>
      <rect>
        24 0 5 5</rect></_>
    <_>
      <rect>
        24 18 1 1</rect></_>
    <_>
      <rect>
        24 31 1 2</rect></_>
    <_>
      <rect>
        24 34 2 1</rect></_>
    <_>
      <rect>
        25 2 4 3</rect></_>
    <_>
      <rect>
        25 9 4 5</rect></_>
    <_>
      <rect>
        25 36 5 1</rect></_>
    <_>
      <rect>
        26 32 1 1</rect></_>
    <_>
      <rect>
        26 34 3 2</rect></_>
    <_>
      <rect>
        27 1 1 1</rect></_>
    <_>
      <rect>
        28 0 4 3</rect></_>
    <_>
      <rect>
        28 0 4 11</rect></_>
    <_>
      <rect>
        28 5 3 3</rect></_>
    <_>
      <rect>
        28 6 2 3</rect></_>
    <_>
      <rect>
        28 6 4 3</rect></_>
    <_>
      <rect>
        28 9 4 6</rect></_>
    <_>
      <rect>
        28 14 3 4</rect></_>
    <_>
      <rect>
        28 14 4 8</rect></_>
    <_>
      <rect>
        28 20 4 3</rect></_>
    <_>
      <rect>
        29 1 2 3</rect></_>
    <_>
      <rect>
        29 2 1 1</rect></_>
    <_>
      <rect>
        29 20 2 2</rect></_>
    <_>
      <rect>
        29 34 3 2</rect></_>
    <_>
      <rect>
        30 24 2 4</rect></_>
    <_>
      <rect>
        31 9 3 2</rect></_>
    <_>
      <rect>
        31 9 3 5</rect></_>
    <_>
      <rect>
        31 19 3 3</rect></_>
    <_>
      <rect>
        31 28 3 3</rect></_>
    <_>
      <rect>
        32 1 2 3</rect></_>
    <_>
      <rect>
        33 1 1 2</rect></_>
    <_>
      <rect>
        33 3 2 1</rect></_>
    <_>
      <rect>
        33 19 2 1</rect></_>
    <_>
      <rect>
        33 36 1 1</rect></_>
    <_>
      <rect>
        34 3 2 2</rect></_>
    <_>
      <rect>
        34 4 2 2</rect></_>
    <_>
      <rect>
        34 18 2 1</rect></_>
    <_>
      <rect>
        34 19 2 2</rect></_>
    <_>
      <rect>
        34 21 2 3</rect></_>
    <_>
      <rect>
        34 22 2 4</rect></_>
    <_>
      <rect>
        34 28 2 1</rect></_>
    <_>
      <rect>
        34 30 2 3</rect></_></features></cascade>
</opencv_storage>
