<?xml version="1.0"?>
<opencv_storage>
<cascade>
  <stageType>BOOST</stageType>
  <featureType>LBP</featureType>
  <height>40</height>
  <width>40</width>
  <stageParams>
    <boostType>GAB</boostType>
    <minHitRate>9.9500000476837158e-01</minHitRate>
    <maxFalseAlarm>5.0000000000000000e-01</maxFalseAlarm>
    <weightTrimRate>9.4999999999999996e-01</weightTrimRate>
    <maxDepth>1</maxDepth>
    <maxWeakCount>100</maxWeakCount></stageParams>
  <featureParams>
    <maxCatCount>256</maxCatCount>
    <featSize>1</featSize></featureParams>
  <stageNum>20</stageNum>
  <stages>
    <!-- stage 0 -->
    <_>
      <maxWeakCount>6</maxWeakCount>
      <stageThreshold>-1.5764411687850952e+00</stageThreshold>
      <weakClassifiers>
        <_>
          <internalNodes>
            0 -1 92 -1 -34539042 -650322179 -209141320 -270739460
            -1650715983 -108740672 -401542048</internalNodes>
          <leafValues>
            -7.2004610300064087e-01 3.0737704038619995e-01</leafValues></_>
        <_>
          <internalNodes>
            0 -1 199 -679944835 -1432584740 -941097985 -335784433
            1605168121 -1363620449 -68797988 -1900800716</internalNodes>
          <leafValues>
            -6.1172306537628174e-01 3.2631307840347290e-01</leafValues></_>
        <_>
          <internalNodes>
            0 -1 22 -134228097 1468232533 -439309614 -1337285062
            2104130419 -182351263 -616317066 1886909047</internalNodes>
          <leafValues>
            -5.2408909797668457e-01 3.7593194842338562e-01</leafValues></_>
        <_>
          <internalNodes>
            0 -1 184 697972085 1006041941 2105380351 -1079215747
            -1712800290 -68071713 -1182765704 752355624</internalNodes>
          <leafValues>
            -5.8960950374603271e-01 3.9387598633766174e-01</leafValues></_>
        <_>
          <internalNodes>
            0 -1 107 -893095 336184306 -1581343433 -1092422818 184478677
            -642821753 -40354444 -1365493552</internalNodes>
          <leafValues>
            -4.7679069638252258e-01 4.2257687449455261e-01</leafValues></_>
        <_>
          <internalNodes>
            0 -1 4 -695210038 -536286810 -247434544 -1602840420
            -886901051 1579914016 1129174928 -243797221</internalNodes>
          <leafValues>
            -5.5891066789627075e-01 3.6233177781105042e-01</leafValues></_></weakClassifiers></_>
    <!-- stage 1 -->
    <_>
      <maxWeakCount>7</maxWeakCount>
      <stageThreshold>-8.6566871404647827e-01</stageThreshold>
      <weakClassifiers>
        <_>
          <internalNodes>
            0 -1 12 -33 -72157942 -989706184 587221538 -6558517
            -658481150 -87864542 -215750797</internalNodes>
          <leafValues>
            -5.8700919151306152e-01 3.6147758364677429e-01</leafValues></_>
        <_>
          <internalNodes>
            0 -1 30 -355997662 671793743 -910152160 -1033975738
            430663680 440774683 -233600240 -810028289</internalNodes>
          <leafValues>
            -6.5115696191787720e-01 2.5518828630447388e-01</leafValues></_>
        <_>
          <internalNodes>
            0 -1 197 -587210753 -1342312535 -268513444 -321065406
            -948971904 -561586988 1545028672 -923545385</internalNodes>
          <leafValues>
            -3.7307390570640564e-01 4.7593793272972107e-01</leafValues></_>
        <_>
          <internalNodes>
            0 -1 42 -4467725 2147459531 -2126511600 51893394 1925909498
            1048643715 545886886 1934849279</internalNodes>
          <leafValues>
            -4.6452972292900085e-01 3.6976790428161621e-01</leafValues></_>
        <_>
          <internalNodes>
            0 -1 6 -916462994 -1935495570 -1430495524 -16716678
            1580713313 -1931117071 2127690969 -993791581</internalNodes>
          <leafValues>
            -3.9060503244400024e-01 4.4794499874114990e-01</leafValues></_>
        <_>
          <internalNodes>
            0 -1 236 -1199837885 402120107 -1503255946 -1091142017
            -992205243 -71701121 -537897712 -1779501771</internalNodes>
          <leafValues>
            -4.0616559982299805e-01 4.2346334457397461e-01</leafValues></_>
        <_>
          <internalNodes>
            0 -1 213 565951482 -1327853158 66589 -1682014064 2059436718
            -1433982770 197024796 167723073</internalNodes>
          <leafValues>
            -4.9560493230819702e-01 3.7629875540733337e-01</leafValues></_></weakClassifiers></_>
    <!-- stage 2 -->
    <_>
      <maxWeakCount>9</maxWeakCount>
      <stageThreshold>-9.1137021780014038e-01</stageThreshold>
      <weakClassifiers>
        <_>
          <internalNodes>
            0 -1 7 -136840194 -132607232 1094746904 1896014352
            -1048190838 -352141030 -922690966 -31197405</internalNodes>
          <leafValues>
            -5.7849919795989990e-01 2.1725964546203613e-01</leafValues></_>
        <_>
          <internalNodes>
            0 -1 65 -2100545 870027711 -1635170213 866497626 262345695
            1060765881 948641930 595054991</internalNodes>
          <leafValues>
            -4.2465320229530334e-01 3.4398216009140015e-01</leafValues></_>
        <_>
          <internalNodes>
            0 -1 29 -490277182 1382074194 -528426888 -1832977770
            -743263552 -623812192 1617281072 -94897897</internalNodes>
          <leafValues>
            -5.5270713567733765e-01 2.7626854181289673e-01</leafValues></_>
        <_>
          <internalNodes>
            0 -1 141 1933833840 318830914 -257470389 -651401148
            1644388524 184601092 1347506212 -574889867</internalNodes>
          <leafValues>
            -3.8925310969352722e-01 4.0892466902732849e-01</leafValues></_>
        <_>
          <internalNodes>
            0 -1 20 -136361358 1444155526 291426418 553824790 2056343922
            1897218119 -481862785 1412627043</internalNodes>
          <leafValues>
            -5.6279629468917847e-01 2.4750389158725739e-01</leafValues></_>
        <_>
          <internalNodes>
            0 -1 232 -155716726 1370318629 -18378125 1973497590
            619581312 -1895473561 1072264960 -650917053</internalNodes>
          <leafValues>
            -3.4453654289245605e-01 4.3038836121559143e-01</leafValues></_>
        <_>
          <internalNodes>
            0 -1 216 -358110273 212529131 -152586383 -840861982
            318222075 1289748471 1206740192 -924067585</internalNodes>
          <leafValues>
            -3.5596325993537903e-01 4.3132188916206360e-01</leafValues></_>
        <_>
          <internalNodes>
            0 -1 173 -1300361728 -2079424376 -2129100072 -1873280188
            -1700780904 -232845279 1384674240 -1059917312</internalNodes>
          <leafValues>
            -4.7311037778854370e-01 3.3248731493949890e-01</leafValues></_>
        <_>
          <internalNodes>
            0 -1 146 -1212472800 -1657196986 1056735063 1971238781
            -285458516 -1115873286 -1881429281 -1141764934</internalNodes>
          <leafValues>
            -3.7947040796279907e-01 4.1273075342178345e-01</leafValues></_></weakClassifiers></_>
    <!-- stage 3 -->
    <_>
      <maxWeakCount>11</maxWeakCount>
      <stageThreshold>-1.1766216754913330e+00</stageThreshold>
      <weakClassifiers>
        <_>
          <internalNodes>
            0 -1 161 -1881164801 -1559326628 605503965 -574112293
            -2029405713 -1366768704 145309848 146759820</internalNodes>
          <leafValues>
            -6.1691540479660034e-01 1.2060301750898361e-01</leafValues></_>
        <_>
          <internalNodes>
            0 -1 95 1937188475 1899107703 290725655 855638194 1582899487
            1064843456 -1118629750 704721034</internalNodes>
          <leafValues>
            -4.5892536640167236e-01 3.0496287345886230e-01</leafValues></_>
        <_>
          <internalNodes>
            0 -1 31 -119357270 1578809410 -536739814 -754957136
            -831876646 -666484704 -2139050789 -837682765</internalNodes>
          <leafValues>
            -4.0891340374946594e-01 3.1835415959358215e-01</leafValues></_>
        <_>
          <internalNodes>
            0 -1 195 1441777664 -216678397 -939486943 1426429330
            -783781752 -1725954040 29376576 2085070946</internalNodes>
          <leafValues>
            -4.0049734711647034e-01 3.2054096460342407e-01</leafValues></_>
        <_>
          <internalNodes>
            0 -1 75 -719104449 -585936109 424693847 270586114 -847496388
            2139964098 -285922054 704864810</internalNodes>
          <leafValues>
            -4.5300382375717163e-01 2.7077132463455200e-01</leafValues></_>
        <_>
          <internalNodes>
            0 -1 215 -906100757 1744970933 12186066 1630743740
            1031986122 143425539 1888421104 350188439</internalNodes>
          <leafValues>
            -4.2667844891548157e-01 3.1932145357131958e-01</leafValues></_>
        <_>
          <internalNodes>
            0 -1 50 -18100596 -1930307775 861094230 -167325481
            -156409251 -2141513213 -67382724 -392432718</internalNodes>
          <leafValues>
            -3.7124779820442200e-01 3.5576182603836060e-01</leafValues></_>
        <_>
          <internalNodes>
            0 -1 160 -277881345 1474620310 -21168145 2087773560
            1549588208 -1891599076 -1662223140 -325533497</internalNodes>
          <leafValues>
            -3.3256146311759949e-01 3.8573038578033447e-01</leafValues></_>
        <_>
          <internalNodes>
            0 -1 139 -49703525 63438290 -1605352971 1469812809
            1099680206 147435538 -2074017329 145424444</internalNodes>
          <leafValues>
            -3.5388281941413879e-01 3.8191756606101990e-01</leafValues></_>
        <_>
          <internalNodes>
            0 -1 134 -1977085390 103830293 -66265934 482377426
            -1545855404 1496940643 -1713751356 -869867435</internalNodes>
          <leafValues>
            -5.1842081546783447e-01 2.6371783018112183e-01</leafValues></_>
        <_>
          <internalNodes>
            0 -1 94 1137505730 676247272 -721206019 -461364796
            1247310144 -1978636283 151783842 -1940901036</internalNodes>
          <leafValues>
            -5.2971392869949341e-01 2.5680157542228699e-01</leafValues></_></weakClassifiers></_>
    <!-- stage 4 -->
    <_>
      <maxWeakCount>10</maxWeakCount>
      <stageThreshold>-9.4627934694290161e-01</stageThreshold>
      <weakClassifiers>
        <_>
          <internalNodes>
            0 -1 79 683881791 966236317 -1061486467 1035981075
            1245588987 1001957802 579391150 805276891</internalNodes>
          <leafValues>
            -4.9805825948715210e-01 1.9824561476707458e-01</leafValues></_>
        <_>
          <internalNodes>
            0 -1 237 -276829185 617074861 -182727706 1692441502
            -286901695 1152579683 353088848 -461903916</internalNodes>
          <leafValues>
            -4.4437912106513977e-01 2.4222497642040253e-01</leafValues></_>
        <_>
          <internalNodes>
            0 -1 89 -347927745 -1078782897 -32744549 635582994
            -647559600 -357012695 -582076770 1041260606</internalNodes>
          <leafValues>
            -4.4042181968688965e-01 2.6446330547332764e-01</leafValues></_>
        <_>
          <internalNodes>
            0 -1 40 -476844569 1794095031 -268202260 -990054186
            -271038107 1447441734 2043542454 -755499025</internalNodes>
          <leafValues>
            -3.4464403986930847e-01 3.6066108942031860e-01</leafValues></_>
        <_>
          <internalNodes>
            0 -1 182 -1449667081 -1294953609 824709279 -1615671336
            -2100868929 -2143431796 208302296 210042912</internalNodes>
          <leafValues>
            -4.8541966080665588e-01 2.4682497978210449e-01</leafValues></_>
        <_>
          <internalNodes>
            0 -1 118 709847808 -1658224589 -652147372 1263248873
            1523270672 704809019 1086681600 -1123056657</internalNodes>
          <leafValues>
            -4.4621419906616211e-01 2.8352996706962585e-01</leafValues></_>
        <_>
          <internalNodes>
            0 -1 54 2094982703 -455618209 -1160330714 -260781926
            1209530631 587790875 -2104107018 -169084557</internalNodes>
          <leafValues>
            -3.8746985793113708e-01 3.2583591341972351e-01</leafValues></_>
        <_>
          <internalNodes>
            0 -1 13 2044136497 893903230 1906710877 1059734300
            -1323208528 -343394276 -350069189 771782918</internalNodes>
          <leafValues>
            -5.3022903203964233e-01 2.5803405046463013e-01</leafValues></_>
        <_>
          <internalNodes>
            0 -1 114 441581661 -1558444971 1064456999 1662810386
            -1568510898 -1925167428 -22456135 1042823264</internalNodes>
          <leafValues>
            -5.5552560091018677e-01 2.1470108628273010e-01</leafValues></_>
        <_>
          <internalNodes>
            0 -1 179 -16777305 536604095 -1367347358 -93626634
            1977049415 1307966831 -17836560 -218630441</internalNodes>
          <leafValues>
            -3.4024918079376221e-01 3.7598213553428650e-01</leafValues></_></weakClassifiers></_>
    <!-- stage 5 -->
    <_>
      <maxWeakCount>12</maxWeakCount>
      <stageThreshold>-9.5171475410461426e-01</stageThreshold>
      <weakClassifiers>
        <_>
          <internalNodes>
            0 -1 99 1566441215 733740183 -1084954890 932527251
            1805636543 932021165 -257814118 685736638</internalNodes>
          <leafValues>
            -5.4807692766189575e-01 7.2916664183139801e-02</leafValues></_>
        <_>
          <internalNodes>
            0 -1 23 -541899137 1939587359 1166721334 536892530
            -1166124201 -784229765 -355747276 1914861350</internalNodes>
          <leafValues>
            -5.4050165414810181e-01 1.7733511328697205e-01</leafValues></_>
        <_>
          <internalNodes>
            0 -1 208 798486509 -1643454355 -2129162220 -1050060608
            -1567901796 -1999798148 22557892 214243408</internalNodes>
          <leafValues>
            -5.5260431766510010e-01 1.8017950654029846e-01</leafValues></_>
        <_>
          <internalNodes>
            0 -1 11 -93589537 -434455942 -83890946 1110114018 2104483313
            -1699613099 -269822086 -29884665</internalNodes>
          <leafValues>
            -2.8332322835922241e-01 3.8423818349838257e-01</leafValues></_>
        <_>
          <internalNodes>
            0 -1 157 -1040198489 -1386761052 -1055648969 -288350208
            1858929268 1484832772 1220860116 169235536</internalNodes>
          <leafValues>
            -5.0342720746994019e-01 2.0625592768192291e-01</leafValues></_>
        <_>
          <internalNodes>
            0 -1 90 1501496667 774586351 2130598845 397459450 805131628
            -1074955304 -108532258 -1434896522</internalNodes>
          <leafValues>
            -2.9743504524230957e-01 3.7355351448059082e-01</leafValues></_>
        <_>
          <internalNodes>
            0 -1 225 471579639 -316796849 -719745568 -1140012415
            -1965321317 -956840193 412730388 -520426757</internalNodes>
          <leafValues>
            -3.5907313227653503e-01 3.1893482804298401e-01</leafValues></_>
        <_>
          <internalNodes>
            0 -1 144 524550371 -850654052 -1857157833 1065910523
            -1969398343 -1431305907 1351768210 146280532</internalNodes>
          <leafValues>
            -4.7775283455848694e-01 2.4109685420989990e-01</leafValues></_>
        <_>
          <internalNodes>
            0 -1 242 -348813617 -1955865373 -1762165710 -1540884334
            -709052640 1744723830 -1772829008 -6900009</internalNodes>
          <leafValues>
            -2.9373925924301147e-01 3.8163524866104126e-01</leafValues></_>
        <_>
          <internalNodes>
            0 -1 193 -2011366010 -1362226928 1686361361 764973343
            148412855 144251435 94978089 209280038</internalNodes>
          <leafValues>
            -5.1765662431716919e-01 2.1260198950767517e-01</leafValues></_>
        <_>
          <internalNodes>
            0 -1 61 -342628266 -497652996 1180537394 781087903
            -292331189 889569339 2070069859 -261492914</internalNodes>
          <leafValues>
            -3.9682489633560181e-01 2.9162898659706116e-01</leafValues></_>
        <_>
          <internalNodes>
            0 -1 220 -5834879 488036177 421089367 532924739 269683388
            495005896 -2012720963 -988295065</internalNodes>
          <leafValues>
            -2.8189352154731750e-01 4.1979941725730896e-01</leafValues></_></weakClassifiers></_>
    <!-- stage 6 -->
    <_>
      <maxWeakCount>11</maxWeakCount>
      <stageThreshold>-9.2773818969726562e-01</stageThreshold>
      <weakClassifiers>
        <_>
          <internalNodes>
            0 -1 57 -448828739 2106683714 -658397506 957399067
            -905159923 2082097193 -858302918 2115367803</internalNodes>
          <leafValues>
            -5.6544852256774902e-01 3.0088495463132858e-02</leafValues></_>
        <_>
          <internalNodes>
            0 -1 163 199756979 2033063548 2017158493 -236055563
            -1575918693 -102376726 -1160492296 -1361045336</internalNodes>
          <leafValues>
            -3.7468081712722778e-01 2.6107391715049744e-01</leafValues></_>
        <_>
          <internalNodes>
            0 -1 212 -136322092 1444122788 67502099 -653031338
            -935270246 -1739976696 -938590200 -938749918</internalNodes>
          <leafValues>
            -3.2644569873809814e-01 2.9807230830192566e-01</leafValues></_>
        <_>
          <internalNodes>
            0 -1 63 -1824135211 -1156431716 -2147266416 578830848
            1803747804 1202356235 8593864 821620930</internalNodes>
          <leafValues>
            -4.7479531168937683e-01 2.3429259657859802e-01</leafValues></_>
        <_>
          <internalNodes>
            0 -1 93 -27928856 -612368234 93882674 455897088 1246130100
            2109745308 1882933328 782465538</internalNodes>
          <leafValues>
            -4.1856902837753296e-01 2.2863115370273590e-01</leafValues></_>
        <_>
          <internalNodes>
            0 -1 39 -1374692433 1678667585 687867090 -628433214
            -1675951601 1712408854 -467842924 -790375041</internalNodes>
          <leafValues>
            -3.9366021752357483e-01 2.6176914572715759e-01</leafValues></_>
        <_>
          <internalNodes>
            0 -1 176 208268315 -1758921154 260046493 -1078215598
            1878863071 -1204912261 511142059 -1717971746</internalNodes>
          <leafValues>
            -2.6735544204711914e-01 4.2764008045196533e-01</leafValues></_>
        <_>
          <internalNodes>
            0 -1 124 -28805898 -1707572706 -1500506161 5656662
            1134551176 -692940744 -126910032 -2009572108</internalNodes>
          <leafValues>
            -4.0348342061042786e-01 2.9392910003662109e-01</leafValues></_>
        <_>
          <internalNodes>
            0 -1 245 -951655605 -343621419 -992016718 -724307625
            -2104522850 224636298 -1779565071 -245929498</internalNodes>
          <leafValues>
            -3.5725802183151245e-01 3.2739180326461792e-01</leafValues></_>
        <_>
          <internalNodes>
            0 -1 101 1794897015 -72024140 -285287572 -815595564
            1859399660 1585602422 -51360104 -1439966245</internalNodes>
          <leafValues>
            -2.7944847941398621e-01 4.1582605242729187e-01</leafValues></_>
        <_>
          <internalNodes>
            0 -1 222 -282092851 -2119635238 -1593954572 -277413962
            -28350420 1056315323 888976084 -1097342468</internalNodes>
          <leafValues>
            -2.8669038414955139e-01 3.8429862260818481e-01</leafValues></_></weakClassifiers></_>
    <!-- stage 7 -->
    <_>
      <maxWeakCount>11</maxWeakCount>
      <stageThreshold>-1.2206749916076660e+00</stageThreshold>
      <weakClassifiers>
        <_>
          <internalNodes>
            0 -1 34 -948309009 -88982726 -740929347 -81761914 -121243177
            -1145927254 -304173183 -80544992</internalNodes>
          <leafValues>
            -5.3874093294143677e-01 5.8139536529779434e-02</leafValues></_>
        <_>
          <internalNodes>
            0 -1 113 -245941251 1070874997 -1861512237 456683058
            -234834395 -121966997 -1411611972 748683776</internalNodes>
          <leafValues>
            -5.0406873226165771e-01 1.8426690995693207e-01</leafValues></_>
        <_>
          <internalNodes>
            0 -1 214 603765945 -1364829322 1430762708 -822553250
            190665910 205494932 1230194116 217964688</internalNodes>
          <leafValues>
            -5.1261448860168457e-01 1.8700884282588959e-01</leafValues></_>
        <_>
          <internalNodes>
            0 -1 102 -205567113 -68275418 2105434111 716708792
            -536905448 -492034 -289800772 -1418192133</internalNodes>
          <leafValues>
            -2.4673834443092346e-01 4.0011891722679138e-01</leafValues></_>
        <_>
          <internalNodes>
            0 -1 37 1608461847 -1320797346 1710415967 706760450
            -394388396 -658425600 1647586396 169897523</internalNodes>
          <leafValues>
            -5.1708710193634033e-01 1.9230604171752930e-01</leafValues></_>
        <_>
          <internalNodes>
            0 -1 200 -1069041822 113284043 -1877859404 -1633629852
            49226049 1469655049 -410300332 1406219222</internalNodes>
          <leafValues>
            -5.6178939342498779e-01 1.8434295058250427e-01</leafValues></_>
        <_>
          <internalNodes>
            0 -1 74 1943495239 1981711115 -321743476 1880246568
            1229021970 1821412019 -1443706392 -194843098</internalNodes>
          <leafValues>
            -3.9802944660186768e-01 2.5856301188468933e-01</leafValues></_>
        <_>
          <internalNodes>
            0 -1 180 -563085405 975343927 -745549545 -1350117136
            989556748 -97104913 1786511572 -855709232</internalNodes>
          <leafValues>
            -3.6444613337516785e-01 3.0692508816719055e-01</leafValues></_>
        <_>
          <internalNodes>
            0 -1 108 -430412592 807180434 409682491 1449656508 -98633204
            899210671 -1601596564 -1868500176</internalNodes>
          <leafValues>
            -4.4730025529861450e-01 2.5442618131637573e-01</leafValues></_>
        <_>
          <internalNodes>
            0 -1 207 -1637902496 -241704512 -1119174363 935900570
            -63898748 -1315403390 -366751652 -1807239038</internalNodes>
          <leafValues>
            -3.7217506766319275e-01 3.0171582102775574e-01</leafValues></_>
        <_>
          <internalNodes>
            0 -1 230 -621834241 -1544929564 -67668719 -819598171
            1585444479 -813694992 -2063835919 -1419799390</internalNodes>
          <leafValues>
            -2.7254086732864380e-01 4.1046410799026489e-01</leafValues></_></weakClassifiers></_>
    <!-- stage 8 -->
    <_>
      <maxWeakCount>13</maxWeakCount>
      <stageThreshold>-9.1329240798950195e-01</stageThreshold>
      <weakClassifiers>
        <_>
          <internalNodes>
            0 -1 226 -1305232465 -1487695335 1346720504 -1231339499
            -1743990354 -1590693117 33886715 167729375</internalNodes>
          <leafValues>
            -4.9060773849487305e-01 6.3309349119663239e-02</leafValues></_>
        <_>
          <internalNodes>
            0 -1 72 1284106754 604947851 -385365334 -1562466766
            -746058354 1376356505 1871532736 -796527994</internalNodes>
          <leafValues>
            -4.7895419597625732e-01 1.5735736489295959e-01</leafValues></_>
        <_>
          <internalNodes>
            0 -1 24 1279773188 1638291775 993161220 15223654 149814084
            1997736511 -1576808864 1952621398</internalNodes>
          <leafValues>
            -6.7105978727340698e-01 1.2173759192228317e-01</leafValues></_>
        <_>
          <internalNodes>
            0 -1 153 616772404 991374372 403725585 -1658377097 146948268
            -1242478520 417603597 480518692</internalNodes>
          <leafValues>
            -4.2510229349136353e-01 2.3451124131679535e-01</leafValues></_>
        <_>
          <internalNodes>
            0 -1 110 -1722362170 -1714094076 -935186219 -1887434747
            -1810085216 201888034 1246546125 1330346091</internalNodes>
          <leafValues>
            -3.2282364368438721e-01 2.8000324964523315e-01</leafValues></_>
        <_>
          <internalNodes>
            0 -1 209 -1568427423 177500882 1344609456 -883231676
            1817374928 -1084672951 2093420992 1170217332</internalNodes>
          <leafValues>
            -5.0120902061462402e-01 1.8424357473850250e-01</leafValues></_>
        <_>
          <internalNodes>
            0 -1 8 -261897494 1470954148 -1397239079 -1993102106
            1007812055 -520093835 1050734295 -582752386</internalNodes>
          <leafValues>
            -2.8070974349975586e-01 3.4028330445289612e-01</leafValues></_>
        <_>
          <internalNodes>
            0 -1 109 -1365277315 -2099084626 -1157385917 1050590584
            1132333076 -1375388769 -1922813360 -1738746316</internalNodes>
          <leafValues>
            -3.9658814668655396e-01 2.4386484920978546e-01</leafValues></_>
        <_>
          <internalNodes>
            0 -1 46 -1608042693 -965032240 154710768 -87411712 311644992
            2118295610 1896155968 -1805131056</internalNodes>
          <leafValues>
            -3.8579294085502625e-01 2.7266120910644531e-01</leafValues></_>
        <_>
          <internalNodes>
            0 -1 201 -830607563 234778552 -67208076 -33755144 1811921829
            -613720066 1559884286 -912812911</internalNodes>
          <leafValues>
            -2.7763959765434265e-01 3.6477684974670410e-01</leafValues></_>
        <_>
          <internalNodes>
            0 -1 52 1414415491 -456052862 -1944854058 -253054948
            1964447747 944178718 1271565990 1152106171</internalNodes>
          <leafValues>
            -4.4082269072532654e-01 2.4534471333026886e-01</leafValues></_>
        <_>
          <internalNodes>
            0 -1 55 -2066404084 206913915 -2013012776 -1201637350
            -2133954468 2073120540 -726236708 -391086783</internalNodes>
          <leafValues>
            -4.2317986488342285e-01 2.3860177397727966e-01</leafValues></_>
        <_>
          <internalNodes>
            0 -1 211 -65236262 1934940723 -1369494059 -1615348189
            605545400 -1127416340 -2119576504 -836514405</internalNodes>
          <leafValues>
            -2.7787500619888306e-01 3.7991711497306824e-01</leafValues></_></weakClassifiers></_>
    <!-- stage 9 -->
    <_>
      <maxWeakCount>14</maxWeakCount>
      <stageThreshold>-1.2997058629989624e+00</stageThreshold>
      <weakClassifiers>
        <_>
          <internalNodes>
            0 -1 131 297469183 498536539 -1715255841 -1080782685
            -1191806289 -1130657639 -662160903 -1655633670</internalNodes>
          <leafValues>
            -4.4175210595130920e-01 1.4041745662689209e-01</leafValues></_>
        <_>
          <internalNodes>
            0 -1 196 1500512183 -15991055 1879047619 -571747031
            -830678584 -565471248 -1255685988 -579349265</internalNodes>
          <leafValues>
            -2.1053749322891235e-01 3.9794573187828064e-01</leafValues></_>
        <_>
          <internalNodes>
            0 -1 97 -804459424 -1661432612 2013285202 -1912548500
            -538442072 994018180 -761468260 1687517684</internalNodes>
          <leafValues>
            -4.8716592788696289e-01 1.7567580938339233e-01</leafValues></_>
        <_>
          <internalNodes>
            0 -1 187 -1576721840 165548424 -24915819 844549864
            -624470447 494414624 1124414305 -1163200140</internalNodes>
          <leafValues>
            -3.4504100680351257e-01 2.5922077894210815e-01</leafValues></_>
        <_>
          <internalNodes>
            0 -1 205 -1614883077 -1187963112 -1342457927 2044574332
            -1376149536 -1224900610 -846294852 -279100948</internalNodes>
          <leafValues>
            -2.8024604916572571e-01 3.3308750391006470e-01</leafValues></_>
        <_>
          <internalNodes>
            0 -1 70 -996417246 816080771 -1038727616 -2036735289
            411265094 1251344960 -125222840 1685840495</internalNodes>
          <leafValues>
            -4.4957053661346436e-01 2.3045413196086884e-01</leafValues></_>
        <_>
          <internalNodes>
            0 -1 105 -293625869 2122950251 -1074086042 930676516
            1439075836 -1166152226 -328335272 2062544471</internalNodes>
          <leafValues>
            -2.8464642167091370e-01 3.3506065607070923e-01</leafValues></_>
        <_>
          <internalNodes>
            0 -1 44 1775942183 697899795 -603970736 664174751 2139314712
            -1206955908 -1635050648 857957986</internalNodes>
          <leafValues>
            -4.5066472887992859e-01 1.8788573145866394e-01</leafValues></_>
        <_>
          <internalNodes>
            0 -1 33 -872120086 991990004 -2108767917 -1457353916
            -365579543 1217049194 -1664711440 -1932408192</internalNodes>
          <leafValues>
            -4.6959701180458069e-01 2.1517063677310944e-01</leafValues></_>
        <_>
          <internalNodes>
            0 -1 142 -680306453 -583747850 -319489827 2116601456
            1577047099 -1636776972 1425395756 -595102213</internalNodes>
          <leafValues>
            -2.7837511897087097e-01 3.4772026538848877e-01</leafValues></_>
        <_>
          <internalNodes>
            0 -1 174 -666650935 -621615286 17897819 -41372528
            -1744113116 1259448729 -570271840 -1016011452</internalNodes>
          <leafValues>
            -3.9770424365997314e-01 2.7196538448333740e-01</leafValues></_>
        <_>
          <internalNodes>
            0 -1 233 2066585783 41980048 -918449776 -1560161325
            1468726195 406968836 432474385 1438504291</internalNodes>
          <leafValues>
            -3.2490968704223633e-01 2.9917553067207336e-01</leafValues></_>
        <_>
          <internalNodes>
            0 -1 88 -752073183 -1929219433 -2145543550 -935816164
            1213426181 -1177196352 -794818366 -106371878</internalNodes>
          <leafValues>
            -3.2349580526351929e-01 3.2838010787963867e-01</leafValues></_>
        <_>
          <internalNodes>
            0 -1 26 -1575219627 1656841799 113792350 890607619
            -1557381328 1340768258 258539544 1027108922</internalNodes>
          <leafValues>
            -4.6329098939895630e-01 1.9564619660377502e-01</leafValues></_></weakClassifiers></_>
    <!-- stage 10 -->
    <_>
      <maxWeakCount>13</maxWeakCount>
      <stageThreshold>-9.1544383764266968e-01</stageThreshold>
      <weakClassifiers>
        <_>
          <internalNodes>
            0 -1 116 -778618891 1963238228 -2138804015 -1181312480
            1690331856 454067044 983042586 1820549755</internalNodes>
          <leafValues>
            -4.8933649063110352e-01 1.7195766791701317e-02</leafValues></_>
        <_>
          <internalNodes>
            0 -1 53 -1308225740 2098540315 1384267900 53090762
            1398934321 -1964513261 976230427 170027362</internalNodes>
          <leafValues>
            -5.2202296257019043e-01 1.2862341105937958e-01</leafValues></_>
        <_>
          <internalNodes>
            0 -1 35 -130038675 -703939032 1592781981 -1792295902
            -1753592486 1920826974 -1132899190 1210822335</internalNodes>
          <leafValues>
            -2.5240820646286011e-01 3.0550143122673035e-01</leafValues></_>
        <_>
          <internalNodes>
            0 -1 204 953168957 -1319227130 -787281645 1036370264
            651909986 -550276721 101487581 167315536</internalNodes>
          <leafValues>
            -4.2583888769149780e-01 2.1176333725452423e-01</leafValues></_>
        <_>
          <internalNodes>
            0 -1 84 1792537527 -1012121560 906056720 -1556925824
            -1597775504 1074155598 -1735653056 1287910467</internalNodes>
          <leafValues>
            -3.4791150689125061e-01 2.3685796558856964e-01</leafValues></_>
        <_>
          <internalNodes>
            0 -1 28 -637338462 1546912050 1711816723 67297511 1879666895
            134963368 -837636408 1245408954</internalNodes>
          <leafValues>
            -3.6558637022972107e-01 2.2894228994846344e-01</leafValues></_>
        <_>
          <internalNodes>
            0 -1 67 -72907061 -2099347370 604609760 1519686082
            1900761614 1083113497 1538257155 -874977</internalNodes>
          <leafValues>
            -2.7866500616073608e-01 3.1682282686233521e-01</leafValues></_>
        <_>
          <internalNodes>
            0 -1 143 -8849923 1047576303 -1694664129 -1610760321
            -621410384 -1615341699 1028709368 -938291558</internalNodes>
          <leafValues>
            -2.3892726004123688e-01 3.7955188751220703e-01</leafValues></_>
        <_>
          <internalNodes>
            0 -1 41 482281504 1774731636 -2138017666 559045063
            1091066384 1807220802 1182939764 224488715</internalNodes>
          <leafValues>
            -5.7323402166366577e-01 1.4272378385066986e-01</leafValues></_>
        <_>
          <internalNodes>
            0 -1 185 -1082746373 -692913628 802995087 -1216316812
            -1627415553 486456828 804596221 491490537</internalNodes>
          <leafValues>
            -2.8827589750289917e-01 3.1721702218055725e-01</leafValues></_>
        <_>
          <internalNodes>
            0 -1 127 1242490204 694177160 1490824035 5378869 320235836
            1254627581 1506159400 -832290460</internalNodes>
          <leafValues>
            -4.7758275270462036e-01 1.9650055468082428e-01</leafValues></_>
        <_>
          <internalNodes>
            0 -1 58 478716850 319866549 40896856 1136947989 -683513371
            1775075976 676339902 -835367873</internalNodes>
          <leafValues>
            -3.5909140110015869e-01 2.6370936632156372e-01</leafValues></_>
        <_>
          <internalNodes>
            0 -1 172 -1970370048 -2101294807 -2012522922 -1603133328
            -1844911792 -1412414693 -633664016 -1328242008</internalNodes>
          <leafValues>
            -4.8783355951309204e-01 2.0368404686450958e-01</leafValues></_></weakClassifiers></_>
    <!-- stage 11 -->
    <_>
      <maxWeakCount>16</maxWeakCount>
      <stageThreshold>-9.8505413532257080e-01</stageThreshold>
      <weakClassifiers>
        <_>
          <internalNodes>
            0 -1 76 -15662275 -1214575173 -998061607 -3828456 1604913145
            -626653158 -1923667970 -541904357</internalNodes>
          <leafValues>
            -3.9823007583618164e-01 1.7533253133296967e-01</leafValues></_>
        <_>
          <internalNodes>
            0 -1 162 -123843821 -765701742 1549156189 -1445940820
            -1202958124 -359825229 517641248 -960479152</internalNodes>
          <leafValues>
            -4.0497240424156189e-01 1.7845971882343292e-01</leafValues></_>
        <_>
          <internalNodes>
            0 -1 62 -918318157 -1815113576 1157959900 1739293600
            579737528 -688887742 327901592 837771625</internalNodes>
          <leafValues>
            -3.4037560224533081e-01 2.3355454206466675e-01</leafValues></_>
        <_>
          <internalNodes>
            0 -1 126 716474202 875161656 1486016859 83943508 -85827216
            69234855 1518618646 686865968</internalNodes>
          <leafValues>
            -4.6297279000282288e-01 2.0661452412605286e-01</leafValues></_>
        <_>
          <internalNodes>
            0 -1 119 -1709800272 -315478848 1078318320 1249811373
            1757950692 -736411454 620870167 -932993447</internalNodes>
          <leafValues>
            -3.4828490018844604e-01 2.3226585984230042e-01</leafValues></_>
        <_>
          <internalNodes>
            0 -1 21 -515796452 918329403 1481538558 576851994
            -1723834320 1810014759 -501556470 1914823280</internalNodes>
          <leafValues>
            -4.9089178442955017e-01 1.7972233891487122e-01</leafValues></_>
        <_>
          <internalNodes>
            0 -1 238 -341741194 791466692 1092555156 -705330705
            1656568359 1216886692 1612050436 -993528652</internalNodes>
          <leafValues>
            -3.9506742358207703e-01 2.1826615929603577e-01</leafValues></_>
        <_>
          <internalNodes>
            0 -1 150 979893691 -2085261406 2097078133 -1426721493
            1286312573 -4063290 1324182056 -1426342069</internalNodes>
          <leafValues>
            -2.2909246385097504e-01 3.9659264683723450e-01</leafValues></_>
        <_>
          <internalNodes>
            0 -1 71 -67100646 -972552098 1100800472 151425568 1493316826
            10093736 -115574032 401203337</internalNodes>
          <leafValues>
            -4.3770813941955566e-01 2.0505304634571075e-01</leafValues></_>
        <_>
          <internalNodes>
            0 -1 170 949725656 -1411741366 269487321 495212196
            -1669246603 -2002767743 193267848 189072489</internalNodes>
          <leafValues>
            -4.4764140248298645e-01 2.0076654851436615e-01</leafValues></_>
        <_>
          <internalNodes>
            0 -1 240 -40570479 1788627143 -116924674 -1765473641
            -567783059 621748235 -1820310396 1955048340</internalNodes>
          <leafValues>
            -3.8075125217437744e-01 2.3780722916126251e-01</leafValues></_>
        <_>
          <internalNodes>
            0 -1 18 -68349985 -1753743601 2129062895 -147640599
            -1747186011 2138551676 -537093031 -1373506461</internalNodes>
          <leafValues>
            -2.4593928456306458e-01 3.9689627289772034e-01</leafValues></_>
        <_>
          <internalNodes>
            0 -1 69 1443070470 1242046764 141803613 -2039966380
            1402358032 1795336730 1687260346 1521544007</internalNodes>
          <leafValues>
            -4.3679213523864746e-01 2.1506269276142120e-01</leafValues></_>
        <_>
          <internalNodes>
            0 -1 223 -1074344658 -27201813 -50969225 -537433043
            -278020997 1308552533 368009465 -2068325133</internalNodes>
          <leafValues>
            -2.6597890257835388e-01 3.6605244874954224e-01</leafValues></_>
        <_>
          <internalNodes>
            0 -1 64 1793400685 -926990482 988741364 769851319 -176918616
            -277450785 -1249395 -1686944237</internalNodes>
          <leafValues>
            -3.0234843492507935e-01 3.3326271176338196e-01</leafValues></_>
        <_>
          <internalNodes>
            0 -1 165 -317433848 1339919407 1476473313 -2030750560
            625946898 -1976559151 396345590 -423376790</internalNodes>
          <leafValues>
            -3.7347427010536194e-01 2.7770435810089111e-01</leafValues></_></weakClassifiers></_>
    <!-- stage 12 -->
    <_>
      <maxWeakCount>15</maxWeakCount>
      <stageThreshold>-1.0851263999938965e+00</stageThreshold>
      <weakClassifiers>
        <_>
          <internalNodes>
            0 -1 135 -245638665 -709828147 -1005998059 -611692271
            -74789141 -46423863 368671183 -571485397</internalNodes>
          <leafValues>
            -4.1290321946144104e-01 2.0000000298023224e-01</leafValues></_>
        <_>
          <internalNodes>
            0 -1 16 -1688353274 294356071 1343026576 -1339907565
            -1068279691 -294190744 -879896216 -496772833</internalNodes>
          <leafValues>
            -3.2266816496849060e-01 2.0849527418613434e-01</leafValues></_>
        <_>
          <internalNodes>
            0 -1 96 1805279099 -605290913 -269602819 467381990
            1743719581 -43035 -838980373 -379896262</internalNodes>
          <leafValues>
            -1.8032611906528473e-01 3.9715826511383057e-01</leafValues></_>
        <_>
          <internalNodes>
            0 -1 158 1606152041 471384192 822219485 857272580 1913148068
            -1439514624 614614808 -1363640718</internalNodes>
          <leafValues>
            -3.3016577363014221e-01 2.2649537026882172e-01</leafValues></_>
        <_>
          <internalNodes>
            0 -1 229 -1897232648 -1527606926 -1323137253 801099840
            702265548 672760070 1021124696 137987284</internalNodes>
          <leafValues>
            -4.9208095669746399e-01 1.9784189760684967e-01</leafValues></_>
        <_>
          <internalNodes>
            0 -1 224 -714278411 -500031054 -720826721 -171449980
            462463223 -746370299 109638532 -614584990</internalNodes>
          <leafValues>
            -2.7220943570137024e-01 3.1399106979370117e-01</leafValues></_>
        <_>
          <internalNodes>
            0 -1 181 -1222124617 -1317364112 -1360040265 1862467422
            914188040 -1406369833 1845387226 -87859638</internalNodes>
          <leafValues>
            -2.2484694421291351e-01 3.8336366415023804e-01</leafValues></_>
        <_>
          <internalNodes>
            0 -1 87 1984824834 114023266 -1333123455 232280240 963515169
            1664166881 -693393660 1090846096</internalNodes>
          <leafValues>
            -5.6464552879333496e-01 1.4796634018421173e-01</leafValues></_>
        <_>
          <internalNodes>
            0 -1 14 -769304156 -464809942 378032992 582717520 -345130752
            -1834039005 17426976 -992857436</internalNodes>
          <leafValues>
            -4.2527467012405396e-01 1.9374564290046692e-01</leafValues></_>
        <_>
          <internalNodes>
            0 -1 86 1296493750 -1850195681 1351794967 -1291148815
            847397771 -918313984 -1954280865 238406838</internalNodes>
          <leafValues>
            -3.3172139525413513e-01 2.7628657221794128e-01</leafValues></_>
        <_>
          <internalNodes>
            0 -1 219 -1432835114 835686672 239162897 1464670784
            -1358378071 -771235793 713194204 -2000878978</internalNodes>
          <leafValues>
            -3.2046687602996826e-01 3.0624949932098389e-01</leafValues></_>
        <_>
          <internalNodes>
            0 -1 36 -259926785 -484801382 -1609104748 -768482664
            -106292392 140937810 -786685120 -247291574</internalNodes>
          <leafValues>
            -3.1904211640357971e-01 2.9862788319587708e-01</leafValues></_>
        <_>
          <internalNodes>
            0 -1 25 -374405475 1538764662 -268538171 2066972665 -9065207
            1047739511 379452974 -1703811529</internalNodes>
          <leafValues>
            -2.6988169550895691e-01 3.5043653845787048e-01</leafValues></_>
        <_>
          <internalNodes>
            0 -1 198 1895357940 1937555733 352481289 -1465845232
            38224513 -609598687 -481016292 -274445232</internalNodes>
          <leafValues>
            -4.8317602276802063e-01 1.9806669652462006e-01</leafValues></_>
        <_>
          <internalNodes>
            0 -1 120 717234012 818810970 268439887 75550976 1531056504
            464610188 -1472814756 1149705332</internalNodes>
          <leafValues>
            -5.4728561639785767e-01 1.8679974973201752e-01</leafValues></_></weakClassifiers></_>
    <!-- stage 13 -->
    <_>
      <maxWeakCount>13</maxWeakCount>
      <stageThreshold>-9.0347290039062500e-01</stageThreshold>
      <weakClassifiers>
        <_>
          <internalNodes>
            0 -1 106 1873799013 -744427368 1611824565 -1063001248
            -639832284 -1739558300 -462517800 -893398589</internalNodes>
          <leafValues>
            -5.0481587648391724e-01 -6.7415731027722359e-03</leafValues></_>
        <_>
          <internalNodes>
            0 -1 202 2069146598 -1903127008 -481453642 -766229122
            -1643392243 1153530309 899612963 1080412099</internalNodes>
          <leafValues>
            -4.5873424410820007e-01 1.4053323864936829e-01</leafValues></_>
        <_>
          <internalNodes>
            0 -1 32 1988798464 235466110 -670004702 -895180502
            -557096892 1254230154 -1069305344 70366536</internalNodes>
          <leafValues>
            -8.0100673437118530e-01 8.7082676589488983e-02</leafValues></_>
        <_>
          <internalNodes>
            0 -1 85 -1334456117 -620486583 -742649466 1388544572
            2055469679 -1687995184 982100650 -1497351978</internalNodes>
          <leafValues>
            -2.4926087260246277e-01 3.0244904756546021e-01</leafValues></_>
        <_>
          <internalNodes>
            0 -1 164 747707640 279057810 -1624827691 -1410557415
            -273998421 -1618369784 25315481 402866214</internalNodes>
          <leafValues>
            -3.2671642303466797e-01 2.6059064269065857e-01</leafValues></_>
        <_>
          <internalNodes>
            0 -1 60 -24282631 -106172492 2129853397 -1770391039
            -1762166799 -828314128 409228386 -897079557</internalNodes>
          <leafValues>
            -2.5202775001525879e-01 3.3585697412490845e-01</leafValues></_>
        <_>
          <internalNodes>
            0 -1 152 -587246089 -626136360 1862008561 -536875320
            -1393557585 -134316040 -1627650417 -280630458</internalNodes>
          <leafValues>
            -1.9681032001972198e-01 4.5844098925590515e-01</leafValues></_>
        <_>
          <internalNodes>
            0 -1 47 -681906818 1573015269 -87216460 1039363642 -52011280
            -1115849099 1820188628 -563884741</internalNodes>
          <leafValues>
            -2.4774457514286041e-01 3.4252998232841492e-01</leafValues></_>
        <_>
          <internalNodes>
            0 -1 246 843355386 -1710947564 -525135613 -1186682680
            -1885952886 -1079738102 -1731634295 -1612703328</internalNodes>
          <leafValues>
            -4.0797033905982971e-01 2.1184565126895905e-01</leafValues></_>
        <_>
          <internalNodes>
            0 -1 3 1083626700 432144488 -2062798742 1244811328
            1163007089 357793928 -2116685620 202381830</internalNodes>
          <leafValues>
            -5.0387638807296753e-01 1.7738343775272369e-01</leafValues></_>
        <_>
          <internalNodes>
            0 -1 169 -1925142350 -1417624239 -447234213 772673808
            839949452 453771634 383264977 204211200</internalNodes>
          <leafValues>
            -6.2470126152038574e-01 1.4367389678955078e-01</leafValues></_>
        <_>
          <internalNodes>
            0 -1 125 711951488 701305313 -465007342 -1343784624
            1903624192 1232412817 1604441600 915792422</internalNodes>
          <leafValues>
            -5.1234793663024902e-01 1.7220380902290344e-01</leafValues></_>
        <_>
          <internalNodes>
            0 -1 100 -1906014154 608993944 1353401745 48682872
            -190889818 -1185106173 -108201888 -534871576</internalNodes>
          <leafValues>
            -4.2229980230331421e-01 2.2509714961051941e-01</leafValues></_></weakClassifiers></_>
    <!-- stage 14 -->
    <_>
      <maxWeakCount>15</maxWeakCount>
      <stageThreshold>-1.0606012344360352e+00</stageThreshold>
      <weakClassifiers>
        <_>
          <internalNodes>
            0 -1 2 -447755301 -553001199 -1056578145 865841983
            -652238401 -1613133278 -240684045 -1330437</internalNodes>
          <leafValues>
            -3.9150056242942810e-01 3.1972789764404297e-01</leafValues></_>
        <_>
          <internalNodes>
            0 -1 49 -547921240 1791251535 -1600495358 -905796412
            1463984899 773914627 548106802 -212342190</internalNodes>
          <leafValues>
            -3.4637534618377686e-01 1.9942010939121246e-01</leafValues></_>
        <_>
          <internalNodes>
            0 -1 235 109946767 -1599223934 1564696324 -1503204916
            -1549067340 759552014 9261472 1161814083</internalNodes>
          <leafValues>
            -3.8984942436218262e-01 1.9098690152168274e-01</leafValues></_>
        <_>
          <internalNodes>
            0 -1 78 -1861016310 2057845064 1207046603 -2129502988
            1237805156 -569898629 -884490628 740316738</internalNodes>
          <leafValues>
            -5.2684348821640015e-01 1.4212940633296967e-01</leafValues></_>
        <_>
          <internalNodes>
            0 -1 218 -1455443468 651724284 -2095824525 -1919088875
            761713251 10086451 1355440526 12555163</internalNodes>
          <leafValues>
            -3.3069658279418945e-01 2.6440909504890442e-01</leafValues></_>
        <_>
          <internalNodes>
            0 -1 10 1521391342 1343638528 2014480464 -385638198
            -1001426550 -933593079 1674062564 -2143050313</internalNodes>
          <leafValues>
            -3.6468759179115295e-01 2.3616564273834229e-01</leafValues></_>
        <_>
          <internalNodes>
            0 -1 130 689438813 -1765534139 -452688438 -2117909628
            -1843971639 -1270346760 -1131212144 -1337979046</internalNodes>
          <leafValues>
            -3.4924823045730591e-01 2.4701859056949615e-01</leafValues></_>
        <_>
          <internalNodes>
            0 -1 151 -893712226 821991920 152619443 -976715128
            -1944968815 -540688214 -1713724448 -2101446437</internalNodes>
          <leafValues>
            -2.9921489953994751e-01 2.9447120428085327e-01</leafValues></_>
        <_>
          <internalNodes>
            0 -1 140 -2065091872 388637080 840643057 -1901562722
            -1582597134 102847160 -1466818365 -872492904</internalNodes>
          <leafValues>
            -3.3961039781570435e-01 2.6620194315910339e-01</leafValues></_>
        <_>
          <internalNodes>
            0 -1 221 832675635 -486724245 -1342207373 1927779967
            268431156 1045393400 -51018000 -1410353742</internalNodes>
          <leafValues>
            -2.6233285665512085e-01 3.4278884530067444e-01</leafValues></_>
        <_>
          <internalNodes>
            0 -1 243 -38555965 -953765963 -855886330 1975054179 99874706
            -328270012 234855874 -688409437</internalNodes>
          <leafValues>
            -2.6491957902908325e-01 3.6321657896041870e-01</leafValues></_>
        <_>
          <internalNodes>
            0 -1 5 -696564589 1237212982 -1111504908 1940433611
            -579050771 -2063827354 -654448918 -2053838613</internalNodes>
          <leafValues>
            -2.6182112097740173e-01 3.6087009310722351e-01</leafValues></_>
        <_>
          <internalNodes>
            0 -1 56 1247095120 1707557867 -267239243 -1559088199
            -368571860 67472018 666364288 -1995165048</internalNodes>
          <leafValues>
            -4.0387567877769470e-01 2.4200432002544403e-01</leafValues></_>
        <_>
          <internalNodes>
            0 -1 177 1239122897 -1256344291 1921025109 1009303887
            -662049364 2017841698 21146252 904625810</internalNodes>
          <leafValues>
            -3.1157308816909790e-01 3.1064882874488831e-01</leafValues></_>
        <_>
          <internalNodes>
            0 -1 81 -391752292 201983632 335954104 1126624105
            -1312665110 1533368905 -75484608 1308855664</internalNodes>
          <leafValues>
            -4.9811258912086487e-01 2.1471130847930908e-01</leafValues></_></weakClassifiers></_>
    <!-- stage 15 -->
    <_>
      <maxWeakCount>15</maxWeakCount>
      <stageThreshold>-9.7773706912994385e-01</stageThreshold>
      <weakClassifiers>
        <_>
          <internalNodes>
            0 -1 9 -553661697 1573702335 1129419319 -143005022
            1749325472 -2389366 1997087182 -849612241</internalNodes>
          <leafValues>
            -4.2248722910881042e-01 1.2234042584896088e-01</leafValues></_>
        <_>
          <internalNodes>
            0 -1 27 -531289586 1729794175 -897347532 -1706372966
            -133545728 1940153033 -628596934 1885520706</internalNodes>
          <leafValues>
            -4.8625531792640686e-01 1.1691787838935852e-01</leafValues></_>
        <_>
          <internalNodes>
            0 -1 147 211625630 1010218193 -1910960304 -1084550125
            -1434248504 -88006656 950539436 173547523</internalNodes>
          <leafValues>
            -3.6571446061134338e-01 1.8702103197574615e-01</leafValues></_>
        <_>
          <internalNodes>
            0 -1 192 -1248395478 -1588537471 21064082 -595390319
            1363245475 1512529946 -805021630 1169813523</internalNodes>
          <leafValues>
            -3.0686104297637939e-01 2.4412930011749268e-01</leafValues></_>
        <_>
          <internalNodes>
            0 -1 132 -1907022062 975702507 1050747987 -1244028080
            173016326 1325795383 1803766788 658161748</internalNodes>
          <leafValues>
            -4.4326493144035339e-01 1.5703508257865906e-01</leafValues></_>
        <_>
          <internalNodes>
            0 -1 148 1516089044 1142461328 553853744 -1440197880
            -749073974 1057497601 -1961602609 1055264112</internalNodes>
          <leafValues>
            -4.1581338644027710e-01 1.8879154324531555e-01</leafValues></_>
        <_>
          <internalNodes>
            0 -1 249 1232840379 1697098659 -289655436 -1099699730
            -573129638 -268478499 1557468164 -322570907</internalNodes>
          <leafValues>
            -2.6392495632171631e-01 3.0822786688804626e-01</leafValues></_>
        <_>
          <internalNodes>
            0 -1 59 401313100 1397244657 1083738116 218612171 842533513
            1516393478 973164744 806079850</internalNodes>
          <leafValues>
            -3.1971618533134460e-01 2.6885494589805603e-01</leafValues></_>
        <_>
          <internalNodes>
            0 -1 112 1803241125 -127737945 -1100006218 1114290810
            1055621109 -411110164 -589455873 -882114736</internalNodes>
          <leafValues>
            -2.7913513779640198e-01 3.1315839290618896e-01</leafValues></_>
        <_>
          <internalNodes>
            0 -1 203 -782308556 -753745677 -711870463 -1057961788
            1370276517 -1977581311 -115057910 219932934</internalNodes>
          <leafValues>
            -3.4798634052276611e-01 2.5322335958480835e-01</leafValues></_>
        <_>
          <internalNodes>
            0 -1 175 -1824390287 -1714770151 -1375135039 21146096
            -1312643656 706808136 -1297327958 -1484593998</internalNodes>
          <leafValues>
            -2.9582667350769043e-01 2.9765039682388306e-01</leafValues></_>
        <_>
          <internalNodes>
            0 -1 194 -948209009 -1619415374 -570429769 -8917775
            -947965754 -1662223876 727172559 -856230705</internalNodes>
          <leafValues>
            -2.0054547488689423e-01 4.3357530236244202e-01</leafValues></_>
        <_>
          <internalNodes>
            0 -1 149 2130476979 1463860797 -541294603 1605303907
            -17281303 -916621583 -823370470 -273941485</internalNodes>
          <leafValues>
            -2.1741631627082825e-01 4.2747390270233154e-01</leafValues></_>
        <_>
          <internalNodes>
            0 -1 227 1053020907 2128498086 -1878930944 2017958709
            1510592324 28967314 1099263586 -940313532</internalNodes>
          <leafValues>
            -3.9874646067619324e-01 2.3207806050777435e-01</leafValues></_>
        <_>
          <internalNodes>
            0 -1 178 -1430876368 -121882685 -1581044635 -87729788
            688093811 1252546763 2114015626 -603332404</internalNodes>
          <leafValues>
            -2.9929944872856140e-01 3.1312790513038635e-01</leafValues></_></weakClassifiers></_>
    <!-- stage 16 -->
    <_>
      <maxWeakCount>16</maxWeakCount>
      <stageThreshold>-9.6581816673278809e-01</stageThreshold>
      <weakClassifiers>
        <_>
          <internalNodes>
            0 -1 103 -178829611 1498548377 -1651794605 462019722
            -913036326 -267781976 -939220310 -1182136446</internalNodes>
          <leafValues>
            -4.8312234878540039e-01 1.3289036229252815e-02</leafValues></_>
        <_>
          <internalNodes>
            0 -1 19 -858020596 -666058250 1212294022 545190690 273392448
            1165133872 948994996 1953947906</internalNodes>
          <leafValues>
            -6.3297241926193237e-01 8.7078474462032318e-02</leafValues></_>
        <_>
          <internalNodes>
            0 -1 121 -900521911 323680035 -806358163 758840784 513072345
            2109732854 1316321153 -635147789</internalNodes>
          <leafValues>
            -2.4989664554595947e-01 2.8928503394126892e-01</leafValues></_>
        <_>
          <internalNodes>
            0 -1 38 2079839523 -17843910 -1392840724 1894739822
            -140071420 -1336967343 -570437940 -478179622</internalNodes>
          <leafValues>
            -2.2466219961643219e-01 3.3724951744079590e-01</leafValues></_>
        <_>
          <internalNodes>
            0 -1 138 946944438 -152618856 -2128520750 -921157626
            1963104966 -1726904152 1147669686 1210028358</internalNodes>
          <leafValues>
            -3.3662381768226624e-01 2.3129673302173615e-01</leafValues></_>
        <_>
          <internalNodes>
            0 -1 136 614621981 1007825980 -1012557782 -2015591980
            1260916532 1535402094 1516891920 -1426632406</internalNodes>
          <leafValues>
            -3.3182907104492188e-01 2.5387367606163025e-01</leafValues></_>
        <_>
          <internalNodes>
            0 -1 128 -499846958 1036521762 1644663238 -1503000558
            2056943888 -325840719 1531228324 -1944948380</internalNodes>
          <leafValues>
            -4.3223592638969421e-01 1.7369444668292999e-01</leafValues></_>
        <_>
          <internalNodes>
            0 -1 247 -366561152 1621955278 286892256 746688992
            -1048354816 1376196171 570956036 1615180097</internalNodes>
          <leafValues>
            -5.3511643409729004e-01 1.5749207139015198e-01</leafValues></_>
        <_>
          <internalNodes>
            0 -1 231 386116233 -1256279870 -1828564920 487904247
            143225230 -1741770748 -1981093429 -1883219824</internalNodes>
          <leafValues>
            -3.1391999125480652e-01 2.8393101692199707e-01</leafValues></_>
        <_>
          <internalNodes>
            0 -1 73 -534323555 -686034851 13375458 824370672 25326100
            1235289252 -1341463860 726768831</internalNodes>
          <leafValues>
            -3.3720490336418152e-01 2.7846586704254150e-01</leafValues></_>
        <_>
          <internalNodes>
            0 -1 123 -549469141 -1424545858 1879011141 28140586
            2039236273 1843393910 64765946 -1892737348</internalNodes>
          <leafValues>
            -2.6731175184249878e-01 3.4534847736358643e-01</leafValues></_>
        <_>
          <internalNodes>
            0 -1 248 649406146 243322909 8444188 1707263172 456953071
            -402225118 1506444008 199035896</internalNodes>
          <leafValues>
            -4.4831469655036926e-01 2.0951026678085327e-01</leafValues></_>
        <_>
          <internalNodes>
            0 -1 168 -465306288 -2123740921 805880590 -262430177
            -913732914 2126520873 2089293880 -2079872553</internalNodes>
          <leafValues>
            -3.7751764059066772e-01 2.5209301710128784e-01</leafValues></_>
        <_>
          <internalNodes>
            0 -1 145 -21596508 -650613066 -1808387 -1761755402
            1602009996 -569937924 1593105626 -1176712182</internalNodes>
          <leafValues>
            -3.0022716522216797e-01 3.3010631799697876e-01</leafValues></_>
        <_>
          <internalNodes>
            0 -1 183 -673580451 -70483431 -1073832262 -1275245191
            1055057352 -1346470155 -1075564646 -1111001206</internalNodes>
          <leafValues>
            -2.0752508938312531e-01 4.6298825740814209e-01</leafValues></_>
        <_>
          <internalNodes>
            0 -1 115 -2123625031 835850556 -1991852009 1805402971
            1756253611 -832454656 1103106958 -1350114700</internalNodes>
          <leafValues>
            -3.7737229466438293e-01 2.6361665129661560e-01</leafValues></_></weakClassifiers></_>
    <!-- stage 17 -->
    <_>
      <maxWeakCount>14</maxWeakCount>
      <stageThreshold>-9.5069068670272827e-01</stageThreshold>
      <weakClassifiers>
        <_>
          <internalNodes>
            0 -1 0 -170701121 2117844302 -99466977 532912925 -398863395
            -326432887 -2129010677 -918296994</internalNodes>
          <leafValues>
            -4.3122512102127075e-01 8.9392133057117462e-02</leafValues></_>
        <_>
          <internalNodes>
            0 -1 117 -1304353812 287197898 -2129620889 -1775541932
            -2050855465 -931101906 -528072465 939527184</internalNodes>
          <leafValues>
            -5.9503889083862305e-01 9.5821246504783630e-02</leafValues></_>
        <_>
          <internalNodes>
            0 -1 206 2133821346 -1893428370 722207322 -1792960307
            469504407 -2679486 -66557357 -1578119622</internalNodes>
          <leafValues>
            -2.6258972287178040e-01 2.6368039846420288e-01</leafValues></_>
        <_>
          <internalNodes>
            0 -1 15 -761862338 -1699086078 -2009062654 1083539563
            -1990112492 -871069548 1159106627 307622415</internalNodes>
          <leafValues>
            -3.8582661747932434e-01 2.1578097343444824e-01</leafValues></_>
        <_>
          <internalNodes>
            0 -1 48 -4216321 -614400002 -402719659 -2016413470 -527109
            -1118500 -83913519 -1954294470</internalNodes>
          <leafValues>
            -2.1517094969749451e-01 3.7601318955421448e-01</leafValues></_>
        <_>
          <internalNodes>
            0 -1 133 245410064 731415026 1242277297 168325520 1154107952
            953780934 2033059876 114784620</internalNodes>
          <leafValues>
            -5.4888647794723511e-01 1.3638815283775330e-01</leafValues></_>
        <_>
          <internalNodes>
            0 -1 104 886261734 871416206 1209788561 -1575070570
            1208486368 677904667 -27547628 -1738769838</internalNodes>
          <leafValues>
            -3.9640256762504578e-01 2.0982074737548828e-01</leafValues></_>
        <_>
          <internalNodes>
            0 -1 156 1929851122 546140560 1409470805 1515115482
            2013274376 -1996402025 -1947027010 1766179838</internalNodes>
          <leafValues>
            -3.0406248569488525e-01 2.7899211645126343e-01</leafValues></_>
        <_>
          <internalNodes>
            0 -1 239 -313430138 -1437814754 622109504 -1767981000
            478755019 138617377 -1913568139 1304441170</internalNodes>
          <leafValues>
            -4.4036957621574402e-01 1.9341506063938141e-01</leafValues></_>
        <_>
          <internalNodes>
            0 -1 217 270326420 -1786724167 -1780694891 1057525828
            -1144351811 -1435589624 -1976900921 -2109033200</internalNodes>
          <leafValues>
            -3.8713082671165466e-01 2.1035093069076538e-01</leafValues></_>
        <_>
          <internalNodes>
            0 -1 45 -813051250 1317192012 142837253 1781825610
            1135814634 1348019016 678292336 -1563115847</internalNodes>
          <leafValues>
            -3.6119815707206726e-01 2.5099685788154602e-01</leafValues></_>
        <_>
          <internalNodes>
            0 -1 188 -238922316 894566528 206048916 383565968 1494036484
            321036929 1586631252 477062054</internalNodes>
          <leafValues>
            -4.5415988564491272e-01 1.9523133337497711e-01</leafValues></_>
        <_>
          <internalNodes>
            0 -1 80 -1163837765 826433142 -1073413 -1518829715
            2012355322 -593691713 -1537904802 -855511490</internalNodes>
          <leafValues>
            -2.6078534126281738e-01 3.5529756546020508e-01</leafValues></_>
        <_>
          <internalNodes>
            0 -1 91 -1455341 2087090735 -361600301 -1132466595
            2055184299 -1882329100 -1242169922 -135809604</internalNodes>
          <leafValues>
            -1.9934046268463135e-01 4.8323071002960205e-01</leafValues></_></weakClassifiers></_>
    <!-- stage 18 -->
    <_>
      <maxWeakCount>15</maxWeakCount>
      <stageThreshold>-1.0598177909851074e+00</stageThreshold>
      <weakClassifiers>
        <_>
          <internalNodes>
            0 -1 66 -578559267 -150372321 1380031 860932112 2030137754
            982515888 -1903553090 1502566490</internalNodes>
          <leafValues>
            -4.6331658959388733e-01 1.9819820299744606e-02</leafValues></_>
        <_>
          <internalNodes>
            0 -1 51 -535120220 1162073348 1082970338 -901321534
            -608677340 1578772039 66292302 -1036627361</internalNodes>
          <leafValues>
            -3.5958030819892883e-01 1.7310190200805664e-01</leafValues></_>
        <_>
          <internalNodes>
            0 -1 244 -1375030361 251642030 -1582513871 -561503966
            -1582659184 -1409283759 77562617 1281627508</internalNodes>
          <leafValues>
            -4.0679574012756348e-01 1.6002430021762848e-01</leafValues></_>
        <_>
          <internalNodes>
            0 -1 186 -755526475 -1964360940 668924916 174272383
            -2031696127 -1712359619 -205734448 -1141655334</internalNodes>
          <leafValues>
            -1.9064503908157349e-01 3.7079241871833801e-01</leafValues></_>
        <_>
          <internalNodes>
            0 -1 137 1645625984 443158808 -2138932991 57853712 50613124
            -1626897767 -400707310 -1669992139</internalNodes>
          <leafValues>
            -4.1942614316940308e-01 1.6974601149559021e-01</leafValues></_>
        <_>
          <internalNodes>
            0 -1 190 814196544 -1824230735 164379109 -2069301296
            1407861494 409109563 1268079504 -1740241034</internalNodes>
          <leafValues>
            -3.7827086448669434e-01 2.2133661806583405e-01</leafValues></_>
        <_>
          <internalNodes>
            0 -1 171 2046164699 -559894916 2029706943 1064858940
            -497090824 -261849098 -825845523 -23331299</internalNodes>
          <leafValues>
            -2.0868249237537384e-01 4.3416020274162292e-01</leafValues></_>
        <_>
          <internalNodes>
            0 -1 129 -1734092233 993427235 -1157752780 1038659299
            1246037673 -1350860808 1155825041 -1403054331</internalNodes>
          <leafValues>
            -2.6681333780288696e-01 3.1526565551757812e-01</leafValues></_>
        <_>
          <internalNodes>
            0 -1 98 -38139217 1427789101 -2110688521 323596642
            -714080036 1306690056 -1454161828 -1103647230</internalNodes>
          <leafValues>
            -2.9657417535781860e-01 3.0629634857177734e-01</leafValues></_>
        <_>
          <internalNodes>
            0 -1 111 -1275166729 -572534038 -85078410 1876650604
            -152079284 -1379899584 -370950518 -690750017</internalNodes>
          <leafValues>
            -2.1618071198463440e-01 4.1232985258102417e-01</leafValues></_>
        <_>
          <internalNodes>
            0 -1 228 -638208982 225190164 1677920880 -1125502670
            318800812 1221362169 -1010744260 -370116572</internalNodes>
          <leafValues>
            -3.8913109898567200e-01 2.3830607533454895e-01</leafValues></_>
        <_>
          <internalNodes>
            0 -1 77 1487410754 41534993 -1492618213 -1714870513
            1359753893 -1114037311 -2109306824 762730002</internalNodes>
          <leafValues>
            -3.9917424321174622e-01 2.3266251385211945e-01</leafValues></_>
        <_>
          <internalNodes>
            0 -1 154 1885327923 1868556107 -795581267 -1978747067
            1905812192 -863207078 -762784710 -1530551787</internalNodes>
          <leafValues>
            -2.8534972667694092e-01 3.3846822381019592e-01</leafValues></_>
        <_>
          <internalNodes>
            0 -1 166 1099844264 947124489 1589653577 596646530
            -987793256 2028902407 -534565564 1991898909</internalNodes>
          <leafValues>
            -4.4211447238922119e-01 2.1352669596672058e-01</leafValues></_>
        <_>
          <internalNodes>
            0 -1 17 440591033 -33961212 138445344 -1105010865 -241539048
            1191886866 1536133873 1952051534</internalNodes>
          <leafValues>
            -3.5665547847747803e-01 2.6700091361999512e-01</leafValues></_></weakClassifiers></_>
    <!-- stage 19 -->
    <_>
      <maxWeakCount>14</maxWeakCount>
      <stageThreshold>-1.3420442342758179e+00</stageThreshold>
      <weakClassifiers>
        <_>
          <internalNodes>
            0 -1 167 -528548159 -104952950 1892286547 757040265
            1394013882 -1978582105 -349296211 -2021143749</internalNodes>
          <leafValues>
            -4.9249395728111267e-01 1.8181817606091499e-02</leafValues></_>
        <_>
          <internalNodes>
            0 -1 210 717501472 820257504 421867090 496059196 584400252
            -1295857220 264900729 174064256</internalNodes>
          <leafValues>
            -6.1507356166839600e-01 9.4008892774581909e-02</leafValues></_>
        <_>
          <internalNodes>
            0 -1 155 344993208 468099981 -2117184645 688031757
            -2129503015 1343824035 -1227144907 1790828264</internalNodes>
          <leafValues>
            -3.5737800598144531e-01 1.9311591982841492e-01</leafValues></_>
        <_>
          <internalNodes>
            0 -1 68 1742259096 -1832255135 1213688193 169043493
            224967492 1243239179 -1292761442 2085989086</internalNodes>
          <leafValues>
            -3.1196033954620361e-01 2.4445240199565887e-01</leafValues></_>
        <_>
          <internalNodes>
            0 -1 234 206806304 382146102 1935389056 -116084312
            -536708625 1762272515 1960379392 1089980802</internalNodes>
          <leafValues>
            -3.8859528303146362e-01 2.0195738971233368e-01</leafValues></_>
        <_>
          <internalNodes>
            0 -1 191 1591537475 -247537679 838318076 1904047474
            275221896 -697933828 861042924 -60398122</internalNodes>
          <leafValues>
            -2.3325213789939880e-01 3.4064453840255737e-01</leafValues></_>
        <_>
          <internalNodes>
            0 -1 122 -2056889292 216060312 1360066940 1313882848
            1582087117 808190721 1446220538 825162750</internalNodes>
          <leafValues>
            -3.8459986448287964e-01 2.1638740599155426e-01</leafValues></_>
        <_>
          <internalNodes>
            0 -1 159 -1980358576 -555537693 1359387960 1048393944
            205038007 -1425981408 -141280944 -1815017106</internalNodes>
          <leafValues>
            -3.2833799719810486e-01 2.5482225418090820e-01</leafValues></_>
        <_>
          <internalNodes>
            0 -1 43 202418510 -410730238 33739673 1372024909 1565395372
            -1283586494 807443434 -110816768</internalNodes>
          <leafValues>
            -3.1702557206153870e-01 2.9202142357826233e-01</leafValues></_>
        <_>
          <internalNodes>
            0 -1 241 -888087994 -1901143314 -1046801519 -1121871844
            -243085178 -392647667 -1224039998 -1700104991</internalNodes>
          <leafValues>
            -3.0387043952941895e-01 3.0295822024345398e-01</leafValues></_>
        <_>
          <internalNodes>
            0 -1 83 -301205578 1184335204 -2110170314 602882102
            663234428 -1188926458 700921904 671607302</internalNodes>
          <leafValues>
            -3.9681896567344666e-01 2.2138817608356476e-01</leafValues></_>
        <_>
          <internalNodes>
            0 -1 82 2125627759 959118567 -1620197459 -1175003387
            -17617432 -841333418 1865866730 1204312707</internalNodes>
          <leafValues>
            -2.9130581021308899e-01 3.0887803435325623e-01</leafValues></_>
        <_>
          <internalNodes>
            0 -1 1 1017348678 -1794293050 -1060618021 1833403027
            -377072919 957227276 -660090459 672397564</internalNodes>
          <leafValues>
            -3.4611439704895020e-01 2.6994609832763672e-01</leafValues></_>
        <_>
          <internalNodes>
            0 -1 189 1841282936 -1099137636 -285298883 -6242398
            -1644298354 -1359319251 1709700491 1332691170</internalNodes>
          <leafValues>
            -2.8481158614158630e-01 3.3696424961090088e-01</leafValues></_></weakClassifiers></_></stages>
  <features>
    <_>
      <rect>
        0 0 3 6</rect></_>
    <_>
      <rect>
        0 1 3 8</rect></_>
    <_>
      <rect>
        0 1 13 13</rect></_>
    <_>
      <rect>
        0 2 2 4</rect></_>
    <_>
      <rect>
        0 2 13 9</rect></_>
    <_>
      <rect>
        0 3 3 3</rect></_>
    <_>
      <rect>
        0 3 5 7</rect></_>
    <_>
      <rect>
        0 4 7 11</rect></_>
    <_>
      <rect>
        0 5 4 6</rect></_>
    <_>
      <rect>
        0 6 3 4</rect></_>
    <_>
      <rect>
        0 8 3 5</rect></_>
    <_>
      <rect>
        0 9 5 8</rect></_>
    <_>
      <rect>
        0 9 8 10</rect></_>
    <_>
      <rect>
        0 16 4 8</rect></_>
    <_>
      <rect>
        0 17 1 1</rect></_>
    <_>
      <rect>
        0 17 8 5</rect></_>
    <_>
      <rect>
        0 19 4 4</rect></_>
    <_>
      <rect>
        0 20 2 2</rect></_>
    <_>
      <rect>
        0 22 2 4</rect></_>
    <_>
      <rect>
        0 23 6 2</rect></_>
    <_>
      <rect>
        0 23 6 5</rect></_>
    <_>
      <rect>
        0 24 4 3</rect></_>
    <_>
      <rect>
        0 25 7 4</rect></_>
    <_>
      <rect>
        0 26 8 4</rect></_>
    <_>
      <rect>
        0 28 5 2</rect></_>
    <_>
      <rect>
        0 29 4 3</rect></_>
    <_>
      <rect>
        0 31 3 3</rect></_>
    <_>
      <rect>
        0 31 8 3</rect></_>
    <_>
      <rect>
        1 0 4 6</rect></_>
    <_>
      <rect>
        1 0 13 10</rect></_>
    <_>
      <rect>
        1 1 13 6</rect></_>
    <_>
      <rect>
        1 2 5 10</rect></_>
    <_>
      <rect>
        1 2 13 6</rect></_>
    <_>
      <rect>
        1 4 6 8</rect></_>
    <_>
      <rect>
        1 5 8 10</rect></_>
    <_>
      <rect>
        1 10 3 6</rect></_>
    <_>
      <rect>
        1 14 1 1</rect></_>
    <_>
      <rect>
        1 14 4 8</rect></_>
    <_>
      <rect>
        1 16 1 1</rect></_>
    <_>
      <rect>
        1 16 2 1</rect></_>
    <_>
      <rect>
        1 18 2 1</rect></_>
    <_>
      <rect>
        1 28 5 4</rect></_>
    <_>
      <rect>
        1 31 12 3</rect></_>
    <_>
      <rect>
        1 32 1 2</rect></_>
    <_>
      <rect>
        1 34 6 2</rect></_>
    <_>
      <rect>
        2 4 2 2</rect></_>
    <_>
      <rect>
        2 7 1 1</rect></_>
    <_>
      <rect>
        2 8 3 5</rect></_>
    <_>
      <rect>
        2 11 8 5</rect></_>
    <_>
      <rect>
        2 15 1 1</rect></_>
    <_>
      <rect>
        2 17 1 1</rect></_>
    <_>
      <rect>
        2 18 1 1</rect></_>
    <_>
      <rect>
        2 20 2 1</rect></_>
    <_>
      <rect>
        2 21 3 6</rect></_>
    <_>
      <rect>
        2 23 2 1</rect></_>
    <_>
      <rect>
        2 23 2 2</rect></_>
    <_>
      <rect>
        2 26 1 2</rect></_>
    <_>
      <rect>
        2 31 7 3</rect></_>
    <_>
      <rect>
        3 2 5 6</rect></_>
    <_>
      <rect>
        3 8 3 6</rect></_>
    <_>
      <rect>
        3 14 7 6</rect></_>
    <_>
      <rect>
        3 19 1 1</rect></_>
    <_>
      <rect>
        3 24 11 5</rect></_>
    <_>
      <rect>
        3 27 12 4</rect></_>
    <_>
      <rect>
        3 34 4 2</rect></_>
    <_>
      <rect>
        3 34 12 2</rect></_>
    <_>
      <rect>
        3 37 8 1</rect></_>
    <_>
      <rect>
        4 16 1 1</rect></_>
    <_>
      <rect>
        4 16 3 3</rect></_>
    <_>
      <rect>
        5 0 4 3</rect></_>
    <_>
      <rect>
        5 1 7 3</rect></_>
    <_>
      <rect>
        5 4 5 6</rect></_>
    <_>
      <rect>
        5 9 3 1</rect></_>
    <_>
      <rect>
        5 18 5 4</rect></_>
    <_>
      <rect>
        5 24 2 2</rect></_>
    <_>
      <rect>
        5 28 5 4</rect></_>
    <_>
      <rect>
        5 37 4 1</rect></_>
    <_>
      <rect>
        6 1 3 5</rect></_>
    <_>
      <rect>
        6 27 3 4</rect></_>
    <_>
      <rect>
        6 37 11 1</rect></_>
    <_>
      <rect>
        7 0 3 4</rect></_>
    <_>
      <rect>
        7 8 5 5</rect></_>
    <_>
      <rect>
        7 10 4 5</rect></_>
    <_>
      <rect>
        7 15 4 3</rect></_>
    <_>
      <rect>
        7 18 6 4</rect></_>
    <_>
      <rect>
        7 30 2 1</rect></_>
    <_>
      <rect>
        8 1 3 5</rect></_>
    <_>
      <rect>
        8 2 8 5</rect></_>
    <_>
      <rect>
        8 20 1 1</rect></_>
    <_>
      <rect>
        8 31 4 3</rect></_>
    <_>
      <rect>
        8 37 3 1</rect></_>
    <_>
      <rect>
        9 1 1 1</rect></_>
    <_>
      <rect>
        9 7 6 10</rect></_>
    <_>
      <rect>
        9 16 3 3</rect></_>
    <_>
      <rect>
        9 23 1 1</rect></_>
    <_>
      <rect>
        9 34 6 2</rect></_>
    <_>
      <rect>
        9 37 5 1</rect></_>
    <_>
      <rect>
        10 0 6 8</rect></_>
    <_>
      <rect>
        10 15 3 3</rect></_>
    <_>
      <rect>
        10 31 10 3</rect></_>
    <_>
      <rect>
        11 13 1 1</rect></_>
    <_>
      <rect>
        11 18 4 6</rect></_>
    <_>
      <rect>
        11 34 3 2</rect></_>
    <_>
      <rect>
        11 36 1 1</rect></_>
    <_>
      <rect>
        12 15 2 2</rect></_>
    <_>
      <rect>
        12 17 3 3</rect></_>
    <_>
      <rect>
        12 20 5 4</rect></_>
    <_>
      <rect>
        12 30 1 2</rect></_>
    <_>
      <rect>
        12 30 2 2</rect></_>
    <_>
      <rect>
        13 15 1 1</rect></_>
    <_>
      <rect>
        13 18 5 4</rect></_>
    <_>
      <rect>
        13 18 6 4</rect></_>
    <_>
      <rect>
        13 28 3 2</rect></_>
    <_>
      <rect>
        13 28 4 4</rect></_>
    <_>
      <rect>
        13 37 1 1</rect></_>
    <_>
      <rect>
        14 5 1 3</rect></_>
    <_>
      <rect>
        14 15 5 4</rect></_>
    <_>
      <rect>
        14 27 1 4</rect></_>
    <_>
      <rect>
        15 0 8 5</rect></_>
    <_>
      <rect>
        15 9 1 1</rect></_>
    <_>
      <rect>
        15 9 4 4</rect></_>
    <_>
      <rect>
        15 11 2 2</rect></_>
    <_>
      <rect>
        15 13 5 3</rect></_>
    <_>
      <rect>
        15 22 2 2</rect></_>
    <_>
      <rect>
        15 30 1 1</rect></_>
    <_>
      <rect>
        16 0 4 3</rect></_>
    <_>
      <rect>
        16 14 3 3</rect></_>
    <_>
      <rect>
        16 17 2 2</rect></_>
    <_>
      <rect>
        16 20 1 1</rect></_>
    <_>
      <rect>
        16 22 1 1</rect></_>
    <_>
      <rect>
        16 37 2 1</rect></_>
    <_>
      <rect>
        16 37 3 1</rect></_>
    <_>
      <rect>
        17 0 5 4</rect></_>
    <_>
      <rect>
        17 3 4 4</rect></_>
    <_>
      <rect>
        17 10 1 1</rect></_>
    <_>
      <rect>
        17 20 5 4</rect></_>
    <_>
      <rect>
        17 21 2 2</rect></_>
    <_>
      <rect>
        17 23 4 3</rect></_>
    <_>
      <rect>
        17 23 7 5</rect></_>
    <_>
      <rect>
        17 34 7 2</rect></_>
    <_>
      <rect>
        18 10 1 1</rect></_>
    <_>
      <rect>
        18 20 5 5</rect></_>
    <_>
      <rect>
        18 20 6 5</rect></_>
    <_>
      <rect>
        18 33 3 2</rect></_>
    <_>
      <rect>
        18 34 2 2</rect></_>
    <_>
      <rect>
        18 35 1 1</rect></_>
    <_>
      <rect>
        18 37 1 1</rect></_>
    <_>
      <rect>
        18 37 3 1</rect></_>
    <_>
      <rect>
        19 12 3 5</rect></_>
    <_>
      <rect>
        19 21 3 4</rect></_>
    <_>
      <rect>
        19 22 3 2</rect></_>
    <_>
      <rect>
        19 26 1 1</rect></_>
    <_>
      <rect>
        19 32 3 2</rect></_>
    <_>
      <rect>
        19 37 2 1</rect></_>
    <_>
      <rect>
        20 1 5 6</rect></_>
    <_>
      <rect>
        20 8 3 3</rect></_>
    <_>
      <rect>
        20 9 4 4</rect></_>
    <_>
      <rect>
        20 12 4 7</rect></_>
    <_>
      <rect>
        20 14 3 5</rect></_>
    <_>
      <rect>
        20 16 1 1</rect></_>
    <_>
      <rect>
        20 18 4 6</rect></_>
    <_>
      <rect>
        20 28 6 4</rect></_>
    <_>
      <rect>
        20 29 3 2</rect></_>
    <_>
      <rect>
        20 37 1 1</rect></_>
    <_>
      <rect>
        20 37 3 1</rect></_>
    <_>
      <rect>
        21 1 4 2</rect></_>
    <_>
      <rect>
        21 4 4 4</rect></_>
    <_>
      <rect>
        21 23 1 1</rect></_>
    <_>
      <rect>
        21 26 6 3</rect></_>
    <_>
      <rect>
        21 30 3 3</rect></_>
    <_>
      <rect>
        21 34 4 2</rect></_>
    <_>
      <rect>
        21 35 2 1</rect></_>
    <_>
      <rect>
        22 12 1 1</rect></_>
    <_>
      <rect>
        22 13 1 1</rect></_>
    <_>
      <rect>
        22 30 2 2</rect></_>
    <_>
      <rect>
        22 35 1 1</rect></_>
    <_>
      <rect>
        22 37 4 1</rect></_>
    <_>
      <rect>
        23 2 4 4</rect></_>
    <_>
      <rect>
        23 5 1 1</rect></_>
    <_>
      <rect>
        23 12 3 1</rect></_>
    <_>
      <rect>
        23 15 2 3</rect></_>
    <_>
      <rect>
        23 22 1 1</rect></_>
    <_>
      <rect>
        23 27 4 4</rect></_>
    <_>
      <rect>
        23 32 1 1</rect></_>
    <_>
      <rect>
        23 34 1 2</rect></_>
    <_>
      <rect>
        23 34 3 2</rect></_>
    <_>
      <rect>
        24 0 1 1</rect></_>
    <_>
      <rect>
        24 10 1 1</rect></_>
    <_>
      <rect>
        24 14 3 3</rect></_>
    <_>
      <rect>
        24 18 5 4</rect></_>
    <_>
      <rect>
        24 23 2 2</rect></_>
    <_>
      <rect>
        24 25 1 1</rect></_>
    <_>
      <rect>
        24 31 4 2</rect></_>
    <_>
      <rect>
        24 31 5 3</rect></_>
    <_>
      <rect>
        25 1 5 11</rect></_>
    <_>
      <rect>
        25 5 5 6</rect></_>
    <_>
      <rect>
        25 12 5 7</rect></_>
    <_>
      <rect>
        25 12 5 8</rect></_>
    <_>
      <rect>
        25 17 2 4</rect></_>
    <_>
      <rect>
        25 22 1 5</rect></_>
    <_>
      <rect>
        25 24 5 2</rect></_>
    <_>
      <rect>
        25 30 4 3</rect></_>
    <_>
      <rect>
        25 31 5 2</rect></_>
    <_>
      <rect>
        26 10 4 5</rect></_>
    <_>
      <rect>
        26 31 2 3</rect></_>
    <_>
      <rect>
        26 35 1 1</rect></_>
    <_>
      <rect>
        27 0 3 4</rect></_>
    <_>
      <rect>
        27 6 4 5</rect></_>
    <_>
      <rect>
        27 18 4 7</rect></_>
    <_>
      <rect>
        27 28 2 2</rect></_>
    <_>
      <rect>
        27 37 1 1</rect></_>
    <_>
      <rect>
        28 2 4 7</rect></_>
    <_>
      <rect>
        28 9 4 7</rect></_>
    <_>
      <rect>
        28 22 3 6</rect></_>
    <_>
      <rect>
        28 25 4 5</rect></_>
    <_>
      <rect>
        28 26 4 2</rect></_>
    <_>
      <rect>
        28 28 4 3</rect></_>
    <_>
      <rect>
        28 34 1 1</rect></_>
    <_>
      <rect>
        28 34 4 2</rect></_>
    <_>
      <rect>
        28 37 1 1</rect></_>
    <_>
      <rect>
        29 1 3 6</rect></_>
    <_>
      <rect>
        29 10 1 1</rect></_>
    <_>
      <rect>
        29 18 1 1</rect></_>
    <_>
      <rect>
        29 18 3 5</rect></_>
    <_>
      <rect>
        29 26 1 1</rect></_>
    <_>
      <rect>
        29 26 3 1</rect></_>
    <_>
      <rect>
        30 16 3 8</rect></_>
    <_>
      <rect>
        30 18 2 1</rect></_>
    <_>
      <rect>
        30 21 2 2</rect></_>
    <_>
      <rect>
        30 23 3 5</rect></_>
    <_>
      <rect>
        30 31 2 1</rect></_>
    <_>
      <rect>
        30 33 1 1</rect></_>
    <_>
      <rect>
        31 6 3 4</rect></_>
    <_>
      <rect>
        31 17 3 5</rect></_>
    <_>
      <rect>
        31 18 3 3</rect></_>
    <_>
      <rect>
        31 23 3 3</rect></_>
    <_>
      <rect>
        32 10 1 1</rect></_>
    <_>
      <rect>
        32 25 2 1</rect></_>
    <_>
      <rect>
        33 21 2 2</rect></_>
    <_>
      <rect>
        33 23 2 2</rect></_>
    <_>
      <rect>
        33 28 2 1</rect></_>
    <_>
      <rect>
        33 29 1 1</rect></_>
    <_>
      <rect>
        34 10 1 1</rect></_>
    <_>
      <rect>
        34 12 2 3</rect></_>
    <_>
      <rect>
        34 24 1 2</rect></_>
    <_>
      <rect>
        34 26 2 1</rect></_>
    <_>
      <rect>
        35 21 1 3</rect></_>
    <_>
      <rect>
        36 18 1 1</rect></_>
    <_>
      <rect>
        36 22 1 4</rect></_>
    <_>
      <rect>
        37 19 1 2</rect></_></features></cascade>
</opencv_storage>
